135 100
</s> -0.1249 -0.16076 0.030711 0.068448 -0.19003 -0.29922 0.063951 0.046522 0.057604 0.11688 0.045751 0.066961 0.19059 0.29671 0.028327 0.23471 -0.074295 0.27787 0.031821 -0.15027 0.069992 -0.089101 0.018922 0.2093 0.52212 0.068194 -0.17572 0.51499 0.11781 0.11633 -0.065788 0.093457 -0.031036 -0.078449 0.23136 0.099122 0.17662 -0.0033066 -0.057851 -0.23633 0.23019 -0.047982 0.25802 -0.040475 -0.4098 -0.063797 -0.20752 -0.11883 -0.12935 -0.17676 0.23468 -0.06527 -0.16586 -0.057878 0.072217 -0.10067 0.02924 -0.070339 -0.28129 0.12313 -0.057917 0.054417 -0.20281 -0.17514 -0.0068034 0.19131 0.00036727 0.045716 0.55098 0.14957 -0.24173 -0.30847 -0.066217 -0.061065 0.026411 -0.16466 -0.07828 -0.12739 -0.23954 -0.11591 -0.21276 0.2236 -0.0051821 -0.040181 -0.22511 -0.23572 0.038993 0.068626 -0.034496 -0.18426 0.16167 -0.19069 -0.031775 -0.089014 0.041234 -0.047348 0.0089111 0.064631 0.10911 0.18846 
iphon 0.24698 0.17738 0.65268 -0.45473 0.23395 1.0226 -0.41223 0.4251 -0.78982 -0.69064 0.27729 -0.72996 -0.19002 -0.18642 -0.46239 -0.74361 0.24437 -0.030288 -0.008884 -0.18984 -0.56678 0.4048 0.18624 0.55904 -1.1396 -0.40887 -0.59153 -0.0089446 0.25863 -0.71653 -0.33387 -0.41464 0.71042 -0.35354 0.13767 -0.13045 -0.51465 0.24439 -0.32967 -0.30585 -0.82268 0.44943 -0.65204 0.044937 0.6658 0.33972 0.46532 -0.18575 -0.28378 -0.15204 0.087171 -0.49543 0.81158 0.27744 -0.66945 0.00075039 -0.57614 0.4853 0.90316 0.033379 -0.051456 0.16408 0.28119 0.57716 0.26853 -0.47096 0.037374 -0.17755 -0.94311 -0.58019 0.36579 0.15867 0.6438 -0.19614 0.24127 -0.12046 -0.69594 0.39236 0.52343 0.34642 0.10068 -0.63053 0.066295 0.3569 0.20158 0.71061 -0.25584 -0.88059 -0.39282 0.67308 -0.073132 0.29167 -0.096115 0.013071 0.41649 0.11475 -0.42604 -0.091745 -0.69976 -0.73017 
laptop 0.058115 0.11766 -0.2367 -0.39971 0.13985 -0.062676 -0.41637 -0.20465 0.54314 0.27932 -0.52645 -0.097329 0.18038 -1.1869 -0.13302 -0.13749 0.27483 0.37876 -0.39167 -0.28764 0.47341 0.28646 -0.34972 -0.157 -0.68684 -0.28592 0.2045 -0.7776 -1.2623 0.11601 0.16164 0.10593 -0.19658 -0.19093 -0.97561 -0.40251 -0.41713 0.48795 0.4744 0.07975 -0.24135 0.67904 -0.4373 0.11535 -0.04498 0.46652 0.812 -0.045275 0.37802 0.58776 -0.41127 -0.1132 -0.105 -0.48404 -0.32387 0.42786 0.04391 -0.23222 -0.089999 -0.099039 0.3709 0.6556 0.49453 0.6056 -0.11988 0.11262 -0.029661 0.28105 -0.016432 -0.4178 0.45442 0.089577 -0.09093 -0.37651 -0.28469 -0.008471 0.54207 0.2887 0.45671 -0.37122 0.043766 -0.22685 -0.13018 -0.55286 0.25507 -0.11276 -0.023856 0.21181 0.44688 -0.34062 0.36894 0.091208 0.44311 0.21976 0.0075388 -0.23501 0.10972 0.49371 0.075858 0.079469 
comput -0.0069902 0.37041 -0.58429 -0.31123 -0.05483 0.78016 -0.63917 -0.68653 1.7049 0.85799 -0.2486 0.99549 -0.026791 -0.21716 0.30936 -0.54675 -0.56921 -0.39778 0.4054 -0.38947 0.61063 0.57469 -0.19267 -0.18599 -0.8377 0.12117 1.36 -1.2318 -0.53196 -0.2251 0.11054 0.69591 -0.55881 0.44916 -0.00073393 -0.34849 -0.15349 0.40065 -0.28495 0.50262 -0.81983 -0.57318 0.063098 -0.52362 -0.18082 -0.31108 0.65027 0.33131 0.30565 0.44616 -0.68143 -0.10478 -0.074548 -1.5436 -0.16174 -0.26395 -0.46997 0.13309 0.059987 0.79621 -0.37823 0.428 0.14126 0.0051806 -0.52801 0.49873 -0.10984 0.029614 -0.25852 -0.79668 1.1359 1.1306 -0.35688 -0.20679 -0.62964 0.14377 -0.04129 0.43042 0.63413 -0.51302 -0.37031 0.13345 0.071577 -0.10587 0.2879 0.057656 -0.098191 0.43579 -0.071244 0.071572 0.18364 0.15936 0.98815 -0.067349 0.094165 -0.041477 0.93934 0.34928 -0.05431 0.66459 
beat 0.21199 0.45651 -0.45143 0.045434 0.57063 0.28918 -0.040827 -0.28749 -0.037111 -0.10847 0.43944 -0.30347 -0.26772 -0.19759 0.58048 -0.30271 -0.065117 -0.054226 -0.19457 0.3361 0.15136 -0.46174 -0.52587 -0.34621 -0.36689 -0.43855 0.69716 -0.16124 -0.23783 0.31571 0.26182 -0.067516 -0.49822 -0.078128 -0.69331 0.0069646 -0.081442 0.043786 0.36977 -0.048407 0.19271 0.35073 -0.46581 0.0014701 -0.0053349 0.41765 0.29553 0.61489 -0.13249 0.33322 -0.97037 0.090444 0.48031 -0.1857 0.2731 -0.011534 -0.22768 0.57097 -0.045646 0.45456 0.087531 0.051462 0.023352 -0.22745 -0.091582 0.31055 -0.13721 -0.059984 -0.39608 0.17082 -0.026194 0.50784 -0.37036 0.32254 0.48838 0.032156 -0.54813 0.13283 -0.0048748 0.14196 -0.42107 0.086344 0.52442 0.0072758 -0.074111 -0.046116 -0.23405 -0.40859 0.1536 0.44491 0.97528 0.19019 -0.3604 -0.47293 -0.17092 0.25975 0.18151 0.27785 -0.0339 -0.42198 
tv 0.73718 -0.37043 -0.38913 -0.81144 0.76276 -0.14884 -0.21358 -0.44087 -1.6043 -0.71493 0.22887 0.73515 -0.81875 -0.85634 -0.48989 0.23594 -1.0627 -1.2429 0.77385 -0.45366 -0.52153 0.44311 0.42069 -0.58579 -0.12428 -0.40911 0.27438 -0.93127 -0.27251 -1.3527 -0.14236 0.65586 -0.5234 1.003 -0.33395 0.37112 -0.47961 -0.62548 -0.6556 0.6687 0.013081 0.36381 0.14889 0.12506 0.56526 -0.3913 -0.18441 -0.33602 -0.24058 0.32559 -0.46886 0.10868 -0.24217 0.15219 0.094303 0.68823 0.3374 -0.57244 -0.10483 0.31161 0.19881 -0.42444 0.52241 -0.021655 -0.55513 0.57651 -1.2905 -0.1998 -0.37455 0.053984 -0.051777 1.0057 0.57377 -1.129 0.053683 0.062321 -0.62928 -0.31664 -0.47411 -0.23507 0.12673 0.31903 0.16294 -0.0025227 0.43982 0.3661 -0.72577 0.41584 -0.032797 0.77871 -0.49685 0.27164 -0.12687 -0.19197 0.15395 -0.59531 -0.06062 -0.15714 0.31898 -0.52132 
hp -0.54935 0.087677 -0.10536 -0.2192 0.18799 0.33216 0.27392 0.058504 1.3109 1.1501 -0.60769 0.58435 0.6365 0.49746 -0.74259 0.026017 0.11682 0.1695 -0.03086 -0.19399 0.22933 0.88805 0.84666 -0.28808 0.63529 0.10181 -0.42446 -0.61191 0.40395 0.70035 -0.46312 -0.61514 -0.59079 -0.46758 0.040555 -0.17145 0.06676 -0.13269 -0.33206 -0.31626 -0.24957 0.22743 0.79699 0.32409 -0.15233 -0.43433 -0.17876 -0.4475 -0.2702 -0.20205 0.02386 0.55808 -0.98307 0.57659 -0.35753 -0.10916 0.24241 -0.064924 0.04346 -0.38957 -0.4163 0.67309 0.48134 0.52656 -0.10866 -0.041218 -0.91646 -0.067323 0.60991 0.14195 -0.32401 0.11526 -0.072538 -0.5753 -0.82423 -0.22288 1.0344 0.26791 0.2859 -0.45181 0.073003 0.26723 -0.093819 -0.50318 -0.09298 -0.57822 0.083548 0.6251 -0.36014 -0.28554 -0.26282 0.27083 1.0596 -0.13464 0.24803 -0.27689 0.28381 0.12679 -0.37904 0.38141 
appl -0.017524 0.10069 -0.4684 -0.94843 0.36813 -0.41959 0.11913 0.032026 0.4268 -0.12299 -0.26039 -0.2004 -0.10883 -0.32003 0.2666 0.14604 -0.019966 0.64439 -0.41112 -0.046463 0.33489 -0.60477 -0.80732 0.0063704 -0.37792 -0.68407 -0.020277 0.44432 -0.61965 0.94698 -0.097172 0.27055 -0.43748 -0.23155 -0.95126 0.17969 0.019083 -0.4058 0.84949 0.25231 0.49649 0.25204 -0.31715 -0.041087 0.25268 0.72861 0.77501 0.49392 0.40059 0.63532 -0.49819 0.25796 0.65072 -0.25801 -0.30675 0.08957 0.34672 -0.073246 0.31576 0.07565 0.41058 0.073242 0.18869 -0.52779 -0.4697 -0.39243 -0.16999 0.11577 -0.2213 0.033425 -0.66441 0.03567 -0.10133 0.57407 0.23307 0.05695 0.38697 0.36899 -0.45857 0.14421 -0.052773 0.11069 0.93649 -0.26816 -0.1995 -0.02414 0.13374 0.12076 0.88171 -0.232 0.73272 0.27526 -0.022705 -0.44399 -0.45122 -0.5447 0.3887 0.6169 0.70778 -0.42091 
ipad -0.31757 -0.054138 0.37 0.040983 -0.05096 -0.25751 0.096414 0.17772 0.17186 0.26834 -0.40483 0.45742 0.067424 1.0328 -0.20981 -0.25777 0.25053 0.13524 0.22561 -0.069834 -0.12043 0.3279 0.56484 -0.16643 0.30557 0.038122 -0.11711 -0.15267 0.74499 0.51323 -0.15857 0.021418 0.093887 -0.36966 0.20947 0.30912 0.36204 -0.49988 -0.27822 0.35022 0.056279 -0.3411 1.0568 0.3367 0.47703 -0.31145 -0.19592 -0.16061 -0.14221 0.048432 0.11025 0.78409 -0.41164 0.69904 -0.19053 0.23199 0.41135 -0.44124 0.23656 -0.37827 -0.25255 0.12258 0.13663 0.3056 0.024947 -0.4823 -0.151 -0.184 -0.16276 0.22613 -0.26973 -0.35586 0.32147 0.36949 0.12098 0.21392 0.33906 0.34504 -0.10438 0.12508 0.051112 0.15034 -0.11122 -0.23385 0.20851 -0.019559 -0.054679 0.63008 -0.20138 -0.16475 -0.36176 0.008955 0.26521 0.22199 -0.06033 -0.3496 -0.21111 0.25813 -0.21144 -0.04525 
4 -0.060032 0.12753 0.24901 -0.029727 -0.01146 0.30722 -0.14206 0.26174 0.26135 -0.12711 -0.13115 -0.21505 0.023354 0.018437 -0.14184 -0.29871 0.18569 0.053668 -0.067589 -0.10585 -0.10727 0.029358 0.13425 0.066666 -0.3472 -0.21318 0.052644 -0.36873 0.1012 -0.14142 -0.21908 -0.32695 0.18695 -0.34073 -0.14609 -0.14018 -0.20367 0.1423 -0.12953 -0.072987 -0.24874 0.32898 -0.080895 0.15655 0.19268 0.32703 0.18843 0.013118 -0.21089 -0.077074 -0.26169 -0.14419 0.14853 0.11938 -0.17432 -0.073985 -0.13683 0.42072 0.40341 -0.061737 -0.20767 0.1777 0.072364 0.42756 0.11399 -0.27973 0.098762 -0.09367 -0.51009 -0.13458 0.27021 0.14247 0.087659 -0.0031497 -0.0043293 -0.025146 -0.14552 0.28732 0.2856 0.18461 0.12857 -0.40641 0.1455 0.16377 -0.090883 0.28048 -0.12959 -0.12166 -0.0027791 0.13414 0.1224 0.15007 0.13925 -0.007022 -0.10824 0.089574 -0.14359 0.12016 -0.3156 -0.20557 
case 0.36774 -0.25798 -0.030956 -0.36892 -0.055764 -0.16687 -0.57379 -0.35108 0.35817 -0.46918 -0.31183 0.30265 -0.36522 -1.1345 0.087523 -0.17097 -0.27347 -0.48633 0.34418 0.0090221 0.44909 0.068296 -0.2383 -0.11874 -1.0532 -0.25352 0.46451 -0.85618 -0.91591 -0.22251 0.4662 0.39501 0.038749 0.42895 -0.038418 -0.54784 -0.34683 0.48346 0.13387 0.52381 -1.0909 -0.47546 -0.55469 -0.26745 0.55565 0.37859 0.92947 0.34707 0.5963 0.52165 -0.10995 -0.62072 0.69494 -1.0309 -0.28846 0.48642 0.11855 -0.45372 0.32088 0.085162 0.76827 0.22694 -0.022285 0.085675 -0.31569 0.31355 0.55591 0.25816 -0.69977 -0.4713 1.2112 0.3689 0.51025 -0.071043 -0.40614 0.21502 -0.22723 0.25138 0.39979 -0.252 0.5061 -0.49723 -0.48703 0.040938 0.72334 0.14078 -0.37441 0.68761 0.47184 -0.38748 -0.64692 0.080477 0.178 0.27581 -0.35297 -0.1463 0.040306 -0.24663 0.63713 0.025215 
drive 0.59309 0.012328 0.086823 0.49797 -0.66729 0.467 0.072683 -0.011963 -0.37239 -0.70298 0.14344 0.010438 -0.65304 -0.57378 0.96051 0.037691 0.18919 -0.74385 0.21583 0.62478 0.22026 -0.59867 -0.63669 0.24084 -0.7906 0.69167 -0.00019994 0.22013 -0.23622 -0.29989 0.71748 0.20552 0.17706 0.39101 0.31981 -0.22104 -0.24895 0.1644 0.0083822 1.0115 -0.41374 -0.66434 -0.40752 -0.2382 0.55171 0.071082 -0.15301 0.33488 0.12735 0.27552 -0.066782 -0.46347 0.37755 -0.7739 0.49375 0.12455 0.044 -0.0093961 -0.017448 -0.27474 0.63091 -0.20236 -0.44837 -0.57361 0.089229 -0.17353 0.57503 0.12286 -1.1144 -0.23023 0.72006 0.40283 0.24172 0.55394 -0.28265 0.24267 -0.62143 -0.51553 0.01112 0.15324 0.36965 -0.61066 -0.77709 0.90837 0.26386 0.90813 0.44251 -0.0041366 0.42704 -0.17791 -0.55782 0.071362 -0.74574 0.58281 -0.095454 0.85927 -0.24996 -0.99584 0.022877 -0.11617 
2138291 0.023481 0.015172 -0.36934 -0.21511 0.23189 0.11572 0.050493 -0.22555 0.2084 0.16858 0.027007 0.43507 -0.039227 0.13795 0.032306 0.061964 -0.3648 -0.15711 0.10785 -0.024935 0.035193 0.060208 -5.2301e-05 -0.23303 0.10165 -0.11566 0.29571 -0.062941 0.11771 0.03305 -0.088342 0.24028 -0.44525 0.17492 -0.070209 0.12788 0.077863 -0.27005 -0.14299 0.066413 0.12857 -0.13008 0.15294 -0.10579 -0.0040998 -0.12706 -0.037434 0.11198 -0.086663 0.14177 -0.27961 0.22183 -0.060947 -0.1378 0.04694 -0.055377 -0.038673 -0.010805 -0.091641 0.24757 -0.066393 0.0054909 0.12512 -0.25499 -0.28448 0.21578 -0.47245 -0.072827 0.14003 0.10685 -0.14308 0.39275 -0.10251 -0.13937 -0.015364 -0.024016 0.023234 0.015382 -0.15427 -0.090309 -0.20914 0.31597 0.34187 -0.13133 -0.084645 -0.1275 -0.085789 0.14936 -0.010023 0.20038 0.17175 0.12711 0.22514 -0.40824 0.010701 -0.25805 0.42455 0.20716 0.11617 -0.038788 
2121716 0.02513 0.018511 -0.35688 -0.20261 0.2177 0.12126 0.063095 -0.22801 0.21277 0.17438 0.031617 0.43103 -0.057699 0.13515 0.026355 0.069254 -0.35852 -0.14551 0.090554 -0.023526 0.023646 0.05624 -0.0095171 -0.23365 0.11012 -0.10465 0.29744 -0.066208 0.11669 0.038991 -0.083934 0.23763 -0.4548 0.16791 -0.053206 0.13154 0.060944 -0.27236 -0.13166 0.064614 0.13113 -0.12299 0.14277 -0.093503 -0.0054058 -0.12476 -0.045802 0.10462 -0.084595 0.13703 -0.29257 0.23929 -0.066229 -0.13444 0.055075 -0.04851 -0.024793 -0.0069016 -0.074086 0.26137 -0.071159 0.0022269 0.12918 -0.24693 -0.2805 0.20698 -0.46336 -0.06691 0.13622 0.10412 -0.14867 0.39319 -0.10288 -0.14072 -0.0081684 -0.022276 0.021696 0.0026033 -0.15686 -0.08776 -0.21712 0.31101 0.33056 -0.13329 -0.09925 -0.12914 -0.083082 0.14306 -0.0070918 0.19256 0.18004 0.1436 0.23023 -0.39791 0.0092128 -0.2495 0.41488 0.21181 0.10828 -0.028639 
2127213 0.014692 0.031074 -0.37143 -0.20496 0.2224 0.10977 0.061056 -0.21995 0.20862 0.17519 0.022645 0.43125 -0.042541 0.13505 0.025405 0.063769 -0.37095 -0.14794 0.10841 -0.014384 0.016777 0.060792 -0.0087883 -0.23368 0.10491 -0.11203 0.2989 -0.061987 0.10888 0.033514 -0.098725 0.24322 -0.44258 0.1639 -0.066339 0.11635 0.06987 -0.2631 -0.13966 0.064457 0.13218 -0.11991 0.15273 -0.10732 -0.01013 -0.12801 -0.03066 0.11311 -0.094081 0.13861 -0.28189 0.23655 -0.051704 -0.14167 0.056816 -0.041645 -0.037464 -0.0058002 -0.087424 0.24993 -0.070389 -0.0071677 0.1151 -0.25188 -0.28245 0.20152 -0.46027 -0.066669 0.12845 0.11167 -0.1522 0.39617 -0.10436 -0.12761 -0.022388 -0.022067 0.010276 0.0051138 -0.1573 -0.10489 -0.21541 0.31354 0.34301 -0.13265 -0.096351 -0.1306 -0.093715 0.15604 -0.005425 0.19648 0.16023 0.14563 0.22163 -0.39657 0.022916 -0.24944 0.42752 0.21303 0.11244 -0.027782 
2127204 0.020662 0.020278 -0.35991 -0.20477 0.21404 0.11884 0.04999 -0.22135 0.21342 0.16945 0.029018 0.42973 -0.043356 0.13786 0.033566 0.059548 -0.37099 -0.15905 0.094398 -0.025961 0.028153 0.065647 0.0011045 -0.2422 0.10243 -0.11076 0.28534 -0.06838 0.11636 0.0431 -0.089362 0.23137 -0.44957 0.17567 -0.056356 0.12786 0.067162 -0.27339 -0.141 0.075382 0.12551 -0.12212 0.14618 -0.096513 -0.0022505 -0.11691 -0.037527 0.10594 -0.095422 0.13333 -0.27697 0.22339 -0.060939 -0.13588 0.050492 -0.057045 -0.039589 -0.016545 -0.074316 0.26121 -0.07964 -0.0032443 0.11807 -0.26007 -0.27926 0.21338 -0.46115 -0.07557 0.12767 0.11545 -0.14026 0.37975 -0.11474 -0.13188 -0.014171 -0.017276 0.025193 -0.0031006 -0.16346 -0.095446 -0.20737 0.32139 0.33457 -0.12377 -0.098569 -0.13564 -0.094046 0.16064 0.0038431 0.20762 0.16251 0.14083 0.23155 -0.39969 0.017879 -0.24676 0.42759 0.22407 0.12246 -0.023951 
2622037 0.020073 0.021709 -0.35685 -0.21532 0.2134 0.12328 0.06149 -0.23033 0.19797 0.16769 0.038919 0.43472 -0.042258 0.13662 0.022702 0.06626 -0.36946 -0.156 0.10418 -0.029178 0.033799 0.064106 -0.0012835 -0.24466 0.095743 -0.10497 0.29806 -0.075143 0.11895 0.029617 -0.081182 0.23467 -0.45928 0.16775 -0.063266 0.11738 0.06686 -0.25403 -0.12974 0.064486 0.11632 -0.12517 0.15053 -0.10142 -0.0082756 -0.12054 -0.039026 0.10877 -0.082722 0.1493 -0.28394 0.24072 -0.066148 -0.13581 0.051018 -0.041722 -0.036953 -0.0075559 -0.077923 0.25851 -0.073895 0.008103 0.11271 -0.24974 -0.27104 0.20309 -0.47043 -0.080472 0.14311 0.11528 -0.13891 0.39487 -0.10862 -0.13317 -0.020847 -0.011124 0.02795 0.003999 -0.16433 -0.10256 -0.20378 0.31962 0.33845 -0.11831 -0.091906 -0.12064 -0.084402 0.14772 -0.0066402 0.20351 0.17238 0.13578 0.22284 -0.40644 0.013275 -0.25578 0.42674 0.21518 0.12092 -0.024735 
20110902 0.036069 -0.012733 -0.26164 -0.20741 0.2466 0.096573 0.01703 -0.24083 0.15872 0.24963 -0.10531 0.35977 0.057355 -0.12248 -0.27834 -0.0069486 -0.27263 -0.19416 0.097803 -0.18743 0.021081 0.4292 0.28103 -0.35363 0.09614 -0.098762 0.25395 -0.52764 -0.055935 -0.15122 -0.11991 0.026029 -0.39668 0.075446 -0.25641 -0.069499 -0.10981 -0.077179 -0.18383 -0.032577 0.021664 0.23245 0.2587 0.15108 -0.03289 -0.21057 -0.075783 -0.15306 -0.13485 0.043924 -0.30991 0.30916 -0.38214 0.033742 -0.0030852 0.11609 0.006962 -0.094682 -0.03697 0.073297 -0.083183 0.12105 0.33107 0.25623 -0.21033 0.25885 -0.62043 -0.032254 0.17113 0.029429 -0.0052615 0.33594 -0.059236 -0.42058 -0.23003 -0.069042 0.18392 0.083997 0.1129 -0.24824 -0.14519 0.21245 0.059931 -0.31825 0.041843 -0.21024 -0.14388 0.22001 -0.08448 0.14137 0.0066648 0.19282 0.47341 -0.17175 0.15369 -0.26321 0.25453 0.25318 -0.09846 0.087102 
laborday 0.040397 -0.00155 -0.25875 -0.20034 0.25794 0.10916 0.012166 -0.23852 0.14481 0.25817 -0.094163 0.35889 0.049844 -0.11529 -0.26414 -0.0039272 -0.27792 -0.19765 0.093521 -0.17914 0.0082989 0.42567 0.27307 -0.3507 0.091288 -0.11137 0.24232 -0.54666 -0.058019 -0.14603 -0.12878 0.024821 -0.40399 0.073531 -0.26668 -0.072529 -0.10608 -0.079182 -0.17911 -0.016277 0.026104 0.23922 0.2668 0.14736 -0.024472 -0.19894 -0.076604 -0.16622 -0.1388 0.035612 -0.29628 0.30924 -0.37623 0.027714 -0.0074261 0.11038 -0.0054783 -0.088034 -0.050884 0.078426 -0.082732 0.12966 0.33058 0.25203 -0.22555 0.26201 -0.62976 -0.038305 0.18431 0.01388 -0.020663 0.34084 -0.048344 -0.41435 -0.23047 -0.066423 0.17461 0.073704 0.097271 -0.26179 -0.15749 0.22811 0.063165 -0.31757 0.044794 -0.211 -0.14201 0.20563 -0.098594 0.14958 0.0041514 0.19489 0.46146 -0.1779 0.15679 -0.25633 0.25244 0.23452 -0.10172 0.098273 
columbusday 0.019661 -0.077205 -0.22824 -0.27867 0.3227 -0.10229 0.028045 -0.22865 0.03607 0.23157 -0.19903 0.25714 0.14337 -0.27261 -0.50621 0.048669 -0.25843 -0.11783 0.052111 -0.36536 -0.00059426 0.59191 0.42324 -0.46647 0.19855 -0.18841 0.13939 -0.69733 -0.23834 -0.22982 -0.18033 -0.095088 -0.41506 -0.020817 -0.51808 -0.1626 -0.27868 -0.083506 -0.17562 -0.090574 0.14363 0.65485 0.36142 0.33514 -0.11968 -0.17891 -0.14 -0.38303 -0.21268 -0.0020449 -0.30357 0.34825 -0.67151 0.18022 -0.03026 0.26264 0.12312 -0.19955 -0.081036 -0.044362 -0.063928 0.19668 0.47347 0.55188 -0.19876 0.28486 -0.7867 0.024698 0.31702 0.059371 -0.098147 0.23392 -0.032052 -0.65555 -0.30695 -0.14143 0.29141 0.084175 0.12807 -0.33982 -0.15726 0.19899 -0.016024 -0.50519 0.026421 -0.34176 -0.19026 0.2399 -0.086157 0.060973 0.031696 0.24018 0.61214 -0.097704 0.20922 -0.38037 0.11894 0.34859 -0.20045 0.10621 
asu -0.15898 0.12443 -0.61254 -0.46409 0.38579 -0.038177 0.055227 -0.37607 1.3568 0.77218 -0.35333 0.37676 0.30338 0.11936 -0.045212 0.0053655 -0.28085 0.33512 -0.14629 -0.1583 0.34274 0.21405 0.06197 -0.54087 0.33504 -0.31538 0.51963 -0.64872 -0.22398 0.71943 -0.2187 0.078868 -1 -0.3046 -0.74755 -0.24571 -0.038781 -0.059078 0.1885 -0.12138 0.1455 0.39128 0.31656 0.20728 -0.29441 0.035958 0.20592 0.11339 -0.14039 0.20356 -0.74757 0.57421 -0.48627 -0.21501 -0.11243 -0.028173 -0.041449 0.038245 -0.13833 0.20274 -0.10376 0.40493 0.34959 0.18274 -0.35427 0.2922 -0.749 -0.017456 0.30667 0.12941 -0.25339 0.47432 -0.42192 -0.26355 -0.36688 -0.15774 0.51853 0.29251 0.15721 -0.29981 -0.40755 0.33367 0.50132 -0.54272 -0.22613 -0.58418 0.0025506 0.39458 0.24544 -0.013593 0.63612 0.33215 0.97825 -0.58525 -0.054006 -0.42647 0.70834 0.72074 0.059792 0.28701 
ps3 -0.057755 -0.0099604 0.093378 0.14774 0.16441 -0.24472 0.16565 0.31649 -0.13617 -0.83939 -0.0071689 -0.41246 0.53117 0.20612 -0.042559 -0.40731 0.48865 -0.020157 -0.41758 -0.28995 -0.46152 -0.43814 -0.36632 0.094829 0.53609 0.14251 -0.17041 0.28597 -0.37517 -0.11629 -0.33224 -0.17789 0.24199 0.45624 -0.29125 0.26055 0.10366 -0.034411 0.12005 -0.30782 0.77972 -0.019498 -0.55166 -0.02473 -0.53144 -0.072491 -0.09194 -0.56885 -0.031772 -0.11036 0.21124 -0.076367 0.18821 -0.11868 0.37224 -0.89002 -0.30021 0.54973 -0.78912 -0.023142 -0.44725 -0.085447 -0.02246 0.26248 0.084426 -0.62346 0.07884 0.039147 0.32464 0.20594 -0.35706 -0.07907 0.35105 -0.18019 0.51629 -0.079327 0.39605 -0.92862 -0.0073679 0.45646 0.018849 0.84468 0.48316 0.09847 -0.49633 -0.10915 0.46519 -0.22921 0.27133 0.43452 0.18585 -0.16973 0.44213 -0.068376 0.19223 -0.98902 0.4067 0.70757 -0.034267 -0.00054532 
touchpad -0.4811 0.058422 -0.0027751 -0.10566 0.13796 0.22318 0.33047 0.21834 0.72078 0.74768 -0.37698 0.33117 0.47055 0.52616 -0.53975 0.12361 0.20672 0.18223 -0.073816 -0.0012624 0.12311 0.47401 0.57841 -0.051248 0.56638 0.078863 -0.64192 -0.010264 0.51015 0.65276 -0.33673 -0.54327 -0.31311 -0.3979 0.22149 0.045653 0.17502 -0.27157 -0.21429 -0.2649 -0.057783 0.061225 0.5647 0.20802 -0.042842 -0.25825 -0.21539 -0.27776 -0.19576 -0.18633 0.19544 0.3749 -0.55143 0.68672 -0.2736 -0.10399 0.3046 -0.045484 0.075441 -0.40503 -0.27576 0.42882 0.29278 0.1782 -0.040703 -0.18641 -0.63599 -0.074196 0.49278 0.23751 -0.48448 -0.1137 0.032637 -0.26658 -0.4819 -0.15749 0.79902 0.14389 0.0077635 -0.23087 0.15423 0.20404 0.00046362 -0.27261 -0.149 -0.37602 0.097804 0.40717 -0.28227 -0.26263 -0.22594 0.1606 0.49256 -0.12167 0.13014 -0.15219 0.088177 -0.067135 -0.2226 0.11843 
galaxi -0.36554 0.021187 -0.00041905 -0.08822 0.10727 0.18993 0.27465 0.18372 0.60164 0.62941 -0.33102 0.29395 0.36132 0.44558 -0.4251 0.11856 0.15709 0.15026 -0.064738 0.062559 0.07937 0.38793 0.49201 -0.058621 0.48874 0.095566 -0.52414 -0.013655 0.45519 0.57446 -0.27553 -0.43293 -0.26763 -0.30484 0.20389 0.048455 0.1708 -0.21735 -0.17161 -0.21186 -0.059982 -0.023834 0.47981 0.18132 0.0079676 -0.24715 -0.17505 -0.2161 -0.15047 -0.15386 0.17827 0.3544 -0.44784 0.57705 -0.23159 -0.074698 0.24058 -0.066406 0.051264 -0.35221 -0.19325 0.3473 0.21265 0.11135 -0.020067 -0.14311 -0.49694 -0.08804 0.39222 0.20707 -0.40903 -0.094089 0.044063 -0.19841 -0.40067 -0.12493 0.66024 0.11007 -0.0014603 -0.15807 0.16033 0.1564 -0.025703 -0.20247 -0.070774 -0.29864 0.089449 0.36855 -0.21857 -0.21322 -0.26136 0.10982 0.38822 -0.12036 0.10543 -0.12516 0.082997 -0.069993 -0.13512 0.08783 
tab -0.37427 0.024859 0.0047312 -0.087125 0.10508 0.17818 0.27283 0.18401 0.59884 0.62484 -0.32023 0.29733 0.36522 0.4474 -0.42531 0.13513 0.16442 0.14194 -0.065921 0.067387 0.084752 0.4023 0.49646 -0.072083 0.48602 0.08799 -0.52064 -0.0071455 0.45284 0.57056 -0.28685 -0.42096 -0.2768 -0.2987 0.22024 0.040218 0.17687 -0.22189 -0.17737 -0.21418 -0.067518 -0.028266 0.47698 0.17808 0.0073268 -0.25318 -0.16063 -0.21988 -0.15094 -0.14012 0.18023 0.35861 -0.44665 0.57782 -0.24489 -0.070191 0.25244 -0.064093 0.043902 -0.3546 -0.20872 0.34788 0.21984 0.10994 -0.01164 -0.14083 -0.49627 -0.088791 0.38367 0.20235 -0.40863 -0.086542 0.035588 -0.18206 -0.40289 -0.11146 0.64885 0.11844 -0.007358 -0.15611 0.15442 0.1729 -0.027433 -0.2093 -0.07619 -0.29015 0.089512 0.36675 -0.21795 -0.20226 -0.25306 0.116 0.40414 -0.10899 0.10341 -0.13374 0.084791 -0.073766 -0.1356 0.095017 
pad 0.014149 -0.33951 -0.041591 -0.27138 0.29547 0.30079 0.35962 0.027152 0.011984 0.15048 -0.19363 0.20347 0.40456 -0.014486 -0.060828 0.4646 0.15935 -0.14871 -0.31203 0.3409 -0.05245 0.27452 0.30548 0.27681 0.37696 0.31631 -0.82305 -0.029297 0.269 0.13189 -0.26342 0.12405 -0.17907 -0.12461 0.60601 0.017798 0.53935 -0.065515 -0.026054 -0.40441 -0.4348 -0.29396 -0.060094 0.5069 0.41293 -0.14206 -0.096427 -0.25333 0.12795 -0.16471 0.58869 0.09136 -0.092927 0.56019 -0.31016 0.024176 0.057395 -0.47442 -0.07896 -0.60656 0.23927 0.014221 0.38709 -0.29938 0.19032 -0.20995 -0.058965 -0.35316 0.34225 -0.13953 -0.26332 -0.21891 0.36949 -0.30953 -0.27867 -0.11737 0.77361 0.093587 0.066893 -0.045694 0.67447 -0.048714 0.086382 0.01604 -0.094738 0.26157 0.29451 0.37139 -0.056793 -0.015944 -0.43004 -0.1547 0.31242 0.0022991 0.074596 -0.27787 -0.15226 -0.55122 0.59347 -0.02349 
20111009 0.030082 -0.078395 -0.21936 -0.29049 0.31518 -0.11051 0.018432 -0.23185 0.027926 0.22949 -0.18724 0.26726 0.14002 -0.26981 -0.51917 0.053103 -0.25749 -0.11158 0.062029 -0.37842 0.0057773 0.59177 0.41937 -0.46142 0.20021 -0.19416 0.13949 -0.68054 -0.23139 -0.21911 -0.18431 -0.098644 -0.41482 -0.035318 -0.51934 -0.16026 -0.26858 -0.08725 -0.17198 -0.099095 0.1463 0.64746 0.36798 0.32445 -0.1235 -0.18576 -0.1263 -0.39165 -0.20692 -0.0018149 -0.3074 0.34528 -0.67476 0.19559 -0.031852 0.2647 0.12229 -0.20388 -0.073819 -0.042394 -0.062073 0.19552 0.47465 0.56648 -0.19626 0.28259 -0.7796 0.035242 0.30685 0.051132 -0.10871 0.22026 -0.038686 -0.64969 -0.30362 -0.14331 0.30519 0.089986 0.13439 -0.34753 -0.14475 0.20941 -0.012456 -0.51199 0.030474 -0.34051 -0.20299 0.22753 -0.081429 0.056455 0.044245 0.23518 0.606 -0.087945 0.20776 -0.37979 0.10047 0.35733 -0.19623 0.10882 
dre 0.042725 0.21185 -0.18509 0.78423 0.27478 0.28447 0.38472 0.092136 -0.015952 0.51311 0.37921 -0.44425 0.13437 0.22931 0.087134 0.16865 0.22179 -0.010941 -0.16141 0.91542 -0.0058003 0.066138 0.41679 -0.41245 0.54379 0.030844 0.10179 -0.05047 0.47487 0.36423 0.24568 -0.48195 -0.093833 -0.24525 0.017685 -0.051254 0.29993 0.060828 0.334 -0.57759 0.503 0.27395 -0.089495 0.45409 -0.094111 -0.037065 -0.62664 0.18052 -0.36507 -0.57766 -0.4736 0.57997 -0.17693 0.95544 0.34603 -0.37411 -0.14402 0.52142 0.070872 -0.25194 -0.30565 -0.20638 -0.024787 0.13955 0.17807 0.27152 -0.20865 -0.29056 0.26448 0.45152 -0.30239 -0.093428 -0.2941 0.33999 -0.0065311 0.055332 0.24074 0.075438 0.27526 0.0015227 -0.036027 0.24154 0.16421 -0.13634 0.1501 -0.32643 0.17528 -0.43626 -0.22764 0.24488 -0.0092135 -0.088409 -0.073566 -0.31674 -0.10662 0.32059 -0.0086313 -0.15719 -0.30468 0.22732 
nikon 0.022349 0.073484 0.4004 0.18176 0.27428 0.85082 -0.37859 -0.46853 -0.45613 0.74245 0.65513 -0.059996 0.0059596 -0.9203 -0.16183 -0.76322 0.12557 -0.38665 0.02339 0.68852 -0.067572 0.3498 -0.20866 0.19374 -0.92726 0.4298 -0.55047 -0.22333 0.2321 -0.19656 0.21731 -0.03136 -0.26527 0.52828 0.058909 0.026156 -0.22634 0.46786 0.028065 0.093082 -1.1954 -0.14145 -0.74045 -0.69169 0.22997 -0.54372 0.12172 0.022641 0.47139 -0.15823 0.86508 -0.49143 -0.55639 -0.23737 -0.24105 -0.37316 -0.40672 -0.16439 -0.21702 0.28505 0.21662 -0.27278 0.055615 -0.010569 0.40188 0.33219 0.12911 0.18761 -0.29546 -0.18956 0.38759 0.20098 -0.17879 -0.8418 0.085753 0.2849 -0.15324 -0.5501 0.41642 -0.11878 -0.47775 -0.055757 -1.063 -0.0014897 0.091571 -0.067678 0.29322 -0.79882 -0.41746 0.351 -0.09935 -0.3172 -0.37882 -0.046815 0.72466 0.25249 0.22043 -0.77982 -0.47418 -0.017764 
soni -0.19537 0.096669 -0.21399 -0.21452 0.12711 0.10615 -0.060994 -0.24642 0.98708 0.68764 -0.35382 0.38159 0.33002 0.022764 -0.32751 -0.21031 -0.12422 0.082086 0.043674 -0.42952 0.22941 0.58153 0.35481 -0.34274 0.1177 -0.053344 0.32708 -0.86216 -0.19387 0.1449 -0.19231 -0.11219 -0.4504 -0.21034 -0.40972 -0.30903 -0.17868 0.14604 -0.11757 -0.087523 -0.19527 0.37663 0.40366 0.16522 -0.24845 -0.18784 0.0584 -0.23551 -0.12795 0.010092 -0.33911 0.29114 -0.6722 -0.16561 -0.13979 -0.022911 -0.045604 0.0052145 -0.040652 0.072233 -0.25973 0.40677 0.36183 0.56964 -0.17513 0.17538 -0.51931 0.05928 0.24232 -0.13829 0.15647 0.32138 -0.20241 -0.46469 -0.49895 -0.12637 0.41624 0.26504 0.38246 -0.39711 -0.23207 0.16988 -0.023797 -0.44033 -0.025711 -0.37669 -0.017932 0.30898 -0.10992 -0.066221 0.12546 0.21965 0.90302 -0.06273 0.17473 -0.22198 0.3191 0.4083 -0.30474 0.42087 
sound -0.11337 -0.24365 -0.50249 0.018138 -0.22076 0.22159 -0.24896 0.16632 1.1489 0.79884 -0.078653 0.66999 -0.23715 -0.84158 0.030739 -0.042356 -0.48578 -0.42839 -0.062598 -0.18205 0.24854 0.2982 0.065283 -0.32582 -0.15946 -0.075406 0.41683 -0.68891 -0.68449 0.015304 -0.046013 0.21311 -0.032796 0.57172 0.19919 -0.079207 -0.27558 0.31947 0.20271 -0.20038 -0.64614 -0.74785 -1.0281 -0.37124 0.49309 0.013522 0.43817 0.13402 0.62813 0.095448 -0.56894 0.051043 0.45385 -0.36236 0.18367 0.31656 -0.27404 -0.27804 -0.56159 -0.083275 0.46913 -0.65134 -0.094691 -0.47548 -0.25971 0.21205 0.67292 0.024639 0.23495 -0.48452 0.3159 0.21168 0.21431 -0.21812 0.039179 0.19282 0.23684 0.054489 0.27985 0.36689 0.044461 -0.98296 -0.37048 0.23732 0.50739 -0.17891 0.15837 0.41488 0.047545 0.30265 -1.0418 -0.43204 -1.1591 -0.066726 -0.04804 0.33661 -0.21927 -0.39251 0.44844 0.1908 
vaio -0.21108 0.11269 -0.26325 -0.37857 0.14858 0.027169 -0.15224 -0.29309 1.2426 0.80281 -0.5511 0.2831 0.44189 -0.30536 -0.39552 -0.26724 -0.0039182 0.27727 -0.11097 -0.57916 0.36646 0.68573 0.2751 -0.37039 -0.038348 -0.15142 0.37532 -1.1251 -0.60356 0.27814 -0.19031 -0.14042 -0.4797 -0.33007 -0.78543 -0.47343 -0.30568 0.34981 0.088372 -0.13814 -0.2539 0.65392 0.32282 0.25637 -0.3061 -0.047066 0.32365 -0.29366 -0.0010491 0.14199 -0.43764 0.27082 -0.7475 -0.31454 -0.25155 0.073715 -0.029116 -0.043654 -0.060503 0.0059737 -0.17772 0.58675 0.49615 0.82335 -0.18287 0.16179 -0.47184 0.14968 0.26596 -0.28814 0.2563 0.2792 -0.23603 -0.54279 -0.6191 -0.15437 0.60349 0.36374 0.54824 -0.50087 -0.22484 0.076766 -0.078219 -0.62828 0.036788 -0.42834 0.024038 0.37367 0.057517 -0.21606 0.24379 0.23756 1.1176 0.043244 0.17069 -0.30648 0.34352 0.59791 -0.27058 0.49746 
3 -0.17131 0.00047688 -0.25486 -0.20528 0.2446 -0.33054 0.24909 0.050278 0.46887 -0.21265 -0.14161 -0.0078966 0.37533 0.51277 0.10319 -0.061541 0.063606 0.24355 -0.31412 -0.18573 -0.14779 -0.43233 -0.33068 -0.13752 0.58927 -0.13118 0.076398 0.28846 -0.10383 0.47841 -0.33004 0.091807 -0.37252 0.10445 -0.41883 0.21909 0.19275 -0.33541 0.18361 -0.15181 0.70197 -0.018759 -0.1031 -0.00169 -0.37935 0.065167 0.013653 -0.12352 -0.079737 0.10094 -0.1509 0.28578 0.035634 -0.10473 0.1744 -0.54236 -0.10376 0.26947 -0.49165 0.107 -0.24829 0.0046414 0.033507 -0.13562 -0.1597 -0.32131 -0.27623 -0.012124 0.31643 0.35077 -0.58931 0.077981 -0.016383 -0.0021422 0.31933 -0.083333 0.44349 -0.38837 -0.23433 0.25786 -0.20679 0.69928 0.73191 -0.098524 -0.55727 -0.31089 0.27592 0.071027 0.34532 0.20999 0.52833 0.069733 0.51917 -0.47522 -0.07872 -0.82475 0.60485 0.76231 0.19469 -0.015033 
macbook -0.083111 0.15392 -0.39336 -0.85115 0.30441 -0.42999 -0.030352 -0.005648 0.35093 0.16823 -0.49667 -0.29326 0.18093 -0.97352 -0.15905 0.051171 0.24556 0.77425 -0.54079 -0.51675 0.57692 0.018608 -0.69101 0.067965 -0.62832 -0.65569 -0.089013 -0.03457 -1.3155 0.6386 0.032289 0.060162 -0.1265 -0.36604 -1.2637 -0.041859 -0.24801 0.046989 0.9446 -0.035593 0.4039 0.81695 -0.34356 0.087781 -0.048162 0.68692 0.94096 0.043891 0.55235 0.62383 -0.38742 0.10743 0.31313 -0.34504 -0.39341 0.27203 0.37678 -0.20446 0.23908 -0.040071 0.38872 0.42236 0.51056 0.18913 -0.44733 -0.25993 -0.14574 0.40634 0.17899 -0.32549 -0.33914 -0.31977 -0.032702 0.19365 -0.035307 -0.021905 0.77455 0.5316 -0.08384 -0.3156 -0.024086 0.1304 0.52159 -0.73525 0.011726 -0.12784 0.22994 0.1106 0.74057 -0.55203 0.67837 0.16628 0.17795 0.05304 -0.20044 -0.52224 0.14587 0.70909 0.4148 -0.076145 
antenna 0.15325 0.16047 -0.1449 -0.37406 0.59767 0.22594 0.32605 -0.40739 -1.9662 -0.90889 -0.024229 -0.42041 -0.76681 0.50152 0.0024482 0.73676 -0.18676 -0.90102 -0.08767 -0.17815 -0.97178 0.038487 -0.062935 -0.21711 0.29281 -0.1077 -0.19547 0.029037 -0.13186 -0.53732 0.25551 0.55413 0.47656 0.21669 -0.18924 0.31748 0.38274 -0.92082 0.053222 -0.069396 0.32715 -0.21202 -0.86937 0.45242 0.26707 -0.047865 0.11311 -0.03167 0.085089 0.66662 -0.1146 0.46016 0.67812 0.93837 -0.21447 0.46546 -0.50827 -0.56791 0.15899 -0.60138 0.43609 -0.88577 0.41375 -0.90357 -0.034253 -0.36115 -0.39056 0.12065 -0.68684 0.30642 -0.47559 -0.11294 0.33948 -0.28461 0.84235 0.30155 -0.2627 -0.091542 -0.36565 0.27687 0.822 0.3218 0.39855 0.82812 -0.21187 0.65201 0.38644 0.078879 -0.62281 0.46405 0.24671 0.35964 -1.0551 0.068334 -0.476 -0.10474 -0.018327 -0.72296 0.52719 -0.27576 
dvd 0.32449 -0.1289 -0.04736 -0.19897 0.26365 -0.17558 -0.07238 -0.56377 -0.41975 -0.25635 -0.33695 -0.0035945 -0.18141 -0.44913 0.0023065 0.094282 -0.15552 -0.36274 -0.027156 0.65556 -0.13221 0.026338 -0.43451 0.18449 -0.081092 0.3743 0.21802 -0.48942 -0.12704 0.17694 -0.062452 0.48275 0.019343 0.48758 -0.043921 -0.1438 0.29006 0.27286 -0.04256 0.18717 -0.59517 -0.97531 -0.046165 0.13203 0.52607 -0.40992 0.52563 0.45609 0.73808 0.57058 0.35571 0.026867 0.44961 0.056221 -0.25946 0.39174 -0.025918 -0.41648 0.28708 -0.17538 0.58771 -0.38658 0.13463 -0.26651 0.094202 -0.020641 0.50928 0.11775 -0.34478 -0.37239 0.022344 -0.27445 -0.10488 0.4851 -0.041199 0.31918 0.0609 -0.034118 0.26412 0.35815 0.77364 -0.25778 -0.017527 -0.083544 0.49397 0.23194 -0.067504 0.38445 0.34606 -0.08837 -0.40129 0.14432 0.24171 0.041793 -0.31436 0.34114 0.13045 -0.34544 0.88751 -0.17462 
player 0.31831 -0.11935 -0.060484 -0.19789 0.26579 -0.16202 -0.079211 -0.56718 -0.41117 -0.2631 -0.33366 -0.0081298 -0.18045 -0.4678 -0.0010698 0.095922 -0.1467 -0.37282 -0.039027 0.64943 -0.12367 0.02601 -0.43655 0.18811 -0.097627 0.38079 0.21389 -0.48677 -0.13352 0.17273 -0.060971 0.46901 0.018345 0.48125 -0.038294 -0.13207 0.2817 0.28176 -0.044374 0.16838 -0.5919 -0.96288 -0.049587 0.12554 0.52886 -0.41307 0.52766 0.4616 0.7426 0.56747 0.36088 0.021507 0.44561 0.057255 -0.26506 0.38619 -0.037728 -0.39968 0.29476 -0.17428 0.58355 -0.38485 0.14247 -0.27683 0.092085 -0.020769 0.50578 0.12521 -0.34229 -0.37651 0.022645 -0.26716 -0.10603 0.48032 -0.059352 0.31598 0.067536 -0.043946 0.26042 0.3562 0.77399 -0.26396 -0.022517 -0.086832 0.48278 0.22169 -0.077893 0.38953 0.36282 -0.072926 -0.41406 0.14935 0.24439 0.03897 -0.32333 0.33939 0.11816 -0.36215 0.88272 -0.18716 
headphon 0.23191 0.37392 -0.27622 0.7457 0.47949 0.50332 0.26633 0.0097201 -0.18152 0.33987 0.50513 -0.55581 -0.012677 0.08529 0.27123 -0.025534 0.25762 -0.068604 -0.21993 1.0462 -0.044594 -0.096553 0.23793 -0.4348 0.31982 -0.082621 0.28865 -0.16631 0.33675 0.39027 0.3095 -0.51402 -0.22517 -0.24029 -0.18893 -0.06863 0.25657 0.15689 0.39171 -0.5562 0.41749 0.31958 -0.3153 0.45593 0.0045729 0.091725 -0.43025 0.36562 -0.39287 -0.36883 -0.77725 0.51705 0.094408 0.84929 0.34783 -0.30174 -0.24186 0.70705 0.061134 -0.15313 -0.21612 -0.12522 0.023878 0.082482 0.15728 0.36061 -0.23802 -0.32642 0.0067349 0.4345 -0.2094 0.15151 -0.29581 0.37865 0.18467 0.044151 -0.046246 0.073409 0.28973 0.09066 -0.054354 0.17958 0.27468 -0.072008 0.2243 -0.21653 0.075639 -0.51695 -0.17271 0.42166 0.22014 -0.02104 -0.22669 -0.40563 -0.11433 0.44419 0.016629 -0.11302 -0.28487 -0.0050954 
kindl 0.40218 0.0050672 -0.063963 0.37866 -0.0030879 -0.12734 0.64976 -0.88877 -0.37871 -0.098129 -0.040834 -0.31374 0.22756 0.38661 0.099762 0.65314 -1.0302 -0.41973 -0.34822 -0.32667 0.013082 0.26021 -0.80094 0.20631 -0.49013 0.27013 0.43772 -0.03697 -0.80958 -0.40326 -0.19857 0.74568 0.3524 -0.31243 -0.29704 -0.63275 -0.75532 0.12275 0.15454 -0.22212 0.41669 0.1474 0.33371 0.18301 -0.67962 -0.42068 -0.018156 -0.45278 0.069887 -0.12614 0.1003 -0.69424 0.14309 -0.61199 0.76466 0.12121 -0.14569 0.14893 0.12778 -0.55786 0.075366 -0.98863 0.11107 -0.060626 0.38221 0.37899 0.34496 -0.059564 -0.28665 -0.54919 0.15046 -0.78992 0.2921 0.26571 -0.28076 -0.33057 0.41216 0.31615 0.17977 -0.70292 -0.067534 -0.26972 -0.4023 0.16423 0.30034 0.21988 0.35424 -0.41354 -0.20037 -0.72167 0.1806 0.55187 0.15125 0.64951 0.19304 0.94078 -0.51056 0.2175 -0.34426 -0.10966 
touch -0.19648 -0.045572 0.098918 0.41027 -0.021018 0.35474 -0.099395 0.12934 0.32452 0.73354 -0.09835 0.26045 0.28973 0.44085 -0.42127 0.085591 0.43303 -0.18765 0.38443 0.58298 0.06411 0.08852 0.23158 0.14908 0.51294 0.18561 -0.4009 0.028562 0.80217 0.64288 -0.026733 -0.57789 -0.02463 -0.0028483 0.40236 0.095755 0.40085 0.053618 -0.37768 0.026982 -0.45118 -0.53572 0.44079 0.06192 0.18445 -0.33842 -0.061351 0.063172 -0.18249 -0.42987 0.16196 0.011714 0.19994 0.37891 -0.27807 -0.15398 0.14942 0.13989 0.087271 -0.0061296 -0.1363 0.23867 -0.31542 0.16294 -0.20795 0.33597 -0.33025 -0.031643 -0.17934 0.053296 -0.3693 -0.033046 0.050303 -0.151 -0.1909 0.032208 0.088734 0.22452 -0.040242 0.17383 0.14941 -0.29422 -0.17808 0.28243 0.1792 0.17816 -0.14698 0.52794 -0.024073 0.042193 -0.87298 -0.10948 -0.048802 -0.40712 0.33333 0.34113 -0.15875 -0.86473 0.19812 -0.015203 
car 0.060349 0.29887 0.6664 0.79587 -0.53405 -0.056277 0.02858 0.25489 -0.59426 -0.81321 -0.2624 -0.22192 -0.75327 0.27827 0.48487 -0.12071 0.38316 -0.088067 -0.36124 0.54326 -0.14363 -0.046023 0.23394 -0.39149 0.28462 0.10824 0.3205 0.37703 -0.053313 -0.55795 0.10481 -0.86579 0.82767 0.67382 0.75989 0.45149 0.13754 -0.69289 0.061121 0.33912 -0.044257 -0.72065 -0.25846 -0.26684 0.096351 -0.19423 -0.20423 -0.084119 0.44731 -0.0020562 -0.37496 0.26376 -0.016799 -0.23809 0.14337 0.29878 0.22693 -0.055187 0.067564 0.087796 -0.10077 0.32209 -0.22814 -0.26401 0.71966 -0.47046 0.29715 0.21109 0.11149 -0.13331 0.14407 -0.030332 -0.088784 0.6798 0.56139 0.28859 0.27405 0.4209 -0.32049 0.8949 0.0031336 -0.57042 -0.40548 0.19731 0.071494 0.24144 -0.49237 -0.61634 -0.36616 -0.26041 0.0090054 -0.43658 -1.2616 0.66962 0.27305 0.48862 -0.30371 0.1263 -0.33626 0.11594 
router -0.36776 0.43397 0.089804 0.15556 -0.04603 0.27374 0.58608 0.45015 -0.58436 -1.64 0.45071 -0.32734 0.081408 0.0343 0.4515 -0.0049456 0.010836 -0.15349 0.25506 0.18201 -0.52213 -0.49057 0.19261 0.4623 0.24988 0.6381 0.07753 0.71995 0.62843 -1.1853 -0.33942 -0.36471 0.50408 -0.16948 0.65877 0.1599 0.56187 -0.33728 0.31262 0.48185 1.0444 -0.63849 0.34204 -0.6486 -0.25721 -0.44632 -0.93954 0.44673 0.026822 -0.77118 0.88078 -0.21855 0.22237 0.23649 0.35327 0.010913 0.099189 0.5562 0.28102 -0.34344 -0.17932 -0.67121 -0.21125 -0.25273 0.22053 -0.31904 -0.24025 -0.34293 0.0079581 0.048781 0.037105 0.14546 -0.73694 0.16372 -0.098862 0.0070158 -0.60884 -0.41567 -0.52188 0.13334 0.046503 -0.13621 -0.29547 0.3879 0.017266 -0.2523 -0.11781 -0.92865 -0.19184 -0.28287 -0.47071 0.51692 -0.16588 0.16298 0.25818 0.53637 -0.074697 0.25341 0.5449 -0.58216 
modem -0.34095 -0.14756 0.44951 -0.37592 -0.7854 -0.52068 -0.72845 0.20154 0.050494 -0.57593 0.18234 -0.32453 -0.43399 -0.11117 -0.65386 0.71505 -0.34332 0.44441 0.24865 0.38713 0.52068 -0.44249 -0.13476 0.025981 -0.3457 -0.40715 0.34569 0.73996 0.14795 -0.56179 0.24332 -0.031869 0.75797 0.68754 0.21128 -0.64054 -0.54395 -1.0636 0.26669 0.26839 1.0903 0.68988 0.36305 -0.033662 0.061912 0.63223 -0.19166 0.3181 -0.058133 -0.37738 0.2812 -0.47011 0.28613 0.40317 -0.037318 -0.13234 -0.54416 -0.41667 0.82217 0.33601 -0.58019 -0.53385 -0.37165 0.1 -0.59285 -0.51827 0.49176 -0.22402 -0.21905 0.50498 0.52063 -0.11583 -0.18391 0.60816 0.080281 -0.41423 -0.14709 -0.59359 -0.33698 0.12446 0.32915 -0.10923 0.48204 0.96709 -0.66806 -0.16381 -0.28951 0.39689 0.30626 0.098582 -0.3569 -0.25307 -0.63933 0.11823 -0.55029 -0.33888 0.20108 -0.22685 -0.028476 0.32818 
hard 0.50744 0.022712 0.032461 0.48951 -0.22825 0.34712 -0.0026355 -0.022332 -0.13211 -0.20467 0.32713 -0.12515 -0.36613 -0.35713 0.85702 -0.11054 0.26108 -0.46423 -0.28724 0.52863 -0.1671 -0.67993 -0.41359 -0.026575 -0.5414 0.42229 0.3107 0.067493 0.15745 -0.17478 0.56685 0.031882 -0.12141 0.30814 0.01368 0.15187 0.069007 0.47449 0.3076 0.42357 -0.34087 -0.52685 -0.45975 -0.23834 0.39113 0.22555 0.108 0.43484 0.10294 0.095432 -0.21797 -0.18558 0.62951 -0.062126 0.1064 -0.059935 0.022768 0.35178 -0.018161 0.069188 0.42116 -0.17674 -0.44302 -0.48623 0.086359 0.11929 0.44569 -0.26235 -0.79468 0.14074 0.49316 0.55532 0.13315 0.4745 0.093073 0.19935 -0.40826 -0.35625 0.16943 0.40155 0.33386 -0.46243 -0.053882 0.61718 0.26987 0.53791 0.21896 -0.32953 0.28949 0.19947 -0.25278 -0.027427 -0.37558 0.2216 0.063423 0.56526 0.0079894 -0.46076 0.013045 -0.27864 
netbook -0.066055 -0.095042 -0.11803 0.42118 -0.12258 -0.18521 -0.55715 -0.22691 0.21103 0.38751 -0.63985 0.061012 0.32203 -1.126 0.077385 0.7009 0.31543 0.22451 -0.65376 0.64737 0.38695 0.24846 -0.23898 -0.4479 0.016924 0.18654 0.04846 -0.41347 -0.99146 0.1244 0.32156 0.55196 -0.16581 -0.021539 -0.35801 -0.42881 -0.064584 0.44005 0.23588 -0.065366 -0.029296 0.197 -0.52551 0.42179 -0.11108 0.35566 0.44198 -0.014477 0.30523 0.6028 0.067434 -0.083044 -0.39574 0.13726 0.0010243 0.73547 -0.12112 -0.70224 -0.78054 -0.71154 0.5826 0.5185 0.27346 0.33488 0.39263 0.51969 0.29882 -0.050645 0.35976 0.15408 0.59088 -0.26676 -0.16461 -0.61401 -0.09521 -0.043843 0.94235 -0.30709 0.42563 -0.25946 0.41262 -0.43573 -0.63394 -0.34398 0.36741 -0.31146 -0.1433 0.63772 0.33255 -0.36145 0.16004 -0.30373 0.1229 0.2783 -0.21249 -0.079133 0.14097 0.17052 0.41562 -0.030129 
i 0.29482 -0.38143 -0.060057 -0.23008 0.21572 0.24344 0.1607 -0.10645 -0.37007 -0.21274 0.0029646 0.04424 0.15905 -0.39401 0.19331 0.40771 0.051119 -0.29948 -0.26694 0.33953 -0.098117 0.055093 -0.0067812 0.32186 0.055318 0.30774 -0.50889 -0.063587 -0.051467 -0.25204 -0.10091 0.39937 -0.018449 0.10743 0.50844 -0.048393 0.4216 0.1241 0.07578 -0.25776 -0.47734 -0.34131 -0.40223 0.36639 0.43223 -0.021823 0.060289 -0.11819 0.26793 -0.059888 0.5156 -0.15403 0.21751 0.16675 -0.20859 0.080379 -0.11733 -0.45875 -0.13498 -0.38802 0.41278 -0.20679 0.23627 -0.41358 0.20465 -0.089099 0.27531 -0.3142 0.085571 -0.30824 0.031552 -0.11079 0.36099 -0.24345 -0.07847 -0.044193 0.34624 -0.015416 0.086314 0.056774 0.62921 -0.19878 0.044967 0.16743 0.011294 0.47052 0.22654 0.17994 0.090255 0.1305 -0.35345 -0.22418 0.055879 0.096013 0.031543 -0.17403 -0.18962 -0.5849 0.73411 -0.081664 
dr -0.18507 -0.029611 -0.20043 0.49074 0.012649 0.062389 0.31332 -0.10014 0.374 0.56185 -0.034066 -0.069693 0.11876 -0.40532 -0.02544 0.37881 -0.018174 -0.34226 -0.02068 0.52664 0.19265 0.46349 0.28968 -0.41956 0.26542 0.18699 0.15534 -0.36539 -0.07122 -0.020498 0.25664 -0.10288 0.093788 0.13872 0.11684 -0.2168 0.17122 0.12647 0.30947 -0.2705 0.078911 0.027701 -0.15266 0.34458 -0.17119 -0.21513 -0.32724 0.02722 0.1953 -0.55205 -0.075594 0.39948 -0.31343 0.54395 0.27909 -0.17916 -0.048042 0.023397 -0.0008444 -0.42937 -0.057703 -0.2615 0.0093208 0.19336 0.079815 0.35282 -0.053081 -0.082466 0.41652 0.036614 0.14439 -0.17727 -0.26653 0.090679 -0.35806 0.20392 0.56597 0.068376 0.40384 -0.24575 0.20835 -0.016195 -0.25325 -0.12959 0.20301 -0.28226 0.22622 -0.1218 -0.053607 -0.1141 -0.43727 -0.14148 0.15457 0.14049 -0.13576 0.22394 0.035851 -0.36487 0.0065551 0.5148 
skull -0.03835 0.11773 -0.28921 0.57179 0.1897 0.14132 0.30065 -0.077101 0.24989 0.50981 0.23112 -0.27602 0.057509 -0.17892 0.17329 0.24902 0.02394 -0.13721 -0.11547 0.69439 0.15633 0.14843 0.1888 -0.45317 0.34553 0.020722 0.29035 -0.20068 0.083427 0.20453 0.2887 -0.20488 -0.13515 -0.049081 -0.07358 -0.12266 0.20088 0.12677 0.40088 -0.40664 0.32271 0.21837 -0.21885 0.34969 -0.19917 -0.040772 -0.37932 0.23171 -0.060455 -0.48624 -0.41762 0.4723 -0.15465 0.56254 0.35269 -0.26013 -0.1296 0.32439 -0.027214 -0.17643 -0.13489 -0.22594 -0.038047 0.093145 0.076187 0.40336 -0.10983 -0.15711 0.31543 0.22567 -0.063452 -0.038469 -0.37364 0.26366 -0.095432 0.12279 0.28606 0.084874 0.30352 -0.12587 -0.036539 0.1338 0.06406 -0.15875 0.10857 -0.32924 0.1692 -0.31997 -0.04854 0.10879 -0.0098451 -0.10642 -0.0016268 -0.18791 -0.16474 0.28473 0.082597 -0.17045 -0.092772 0.34699 
candi -0.033029 0.11672 -0.29529 0.57645 0.20251 0.12624 0.3057 -0.08335 0.24287 0.51392 0.22925 -0.2794 0.073421 -0.17806 0.17183 0.24901 0.042135 -0.13686 -0.11852 0.68994 0.16205 0.13945 0.17858 -0.44127 0.34643 0.023477 0.29227 -0.1968 0.093348 0.20489 0.2822 -0.20054 -0.12463 -0.045782 -0.07191 -0.11963 0.19503 0.12396 0.39602 -0.41698 0.33585 0.22224 -0.217 0.35879 -0.209 -0.034387 -0.38307 0.21428 -0.063945 -0.48665 -0.41961 0.46635 -0.14456 0.57166 0.34911 -0.26161 -0.14317 0.32911 -0.035519 -0.167 -0.13151 -0.228 -0.030279 0.094577 0.069592 0.40628 -0.10951 -0.16456 0.31425 0.22867 -0.073749 -0.055762 -0.3832 0.25766 -0.099703 0.12976 0.28726 0.08208 0.30386 -0.13688 -0.028631 0.14063 0.050903 -0.15807 0.11578 -0.31693 0.17106 -0.32082 -0.048057 0.1105 -0.010656 -0.11218 0.0065064 -0.18674 -0.15721 0.28444 0.070978 -0.17803 -0.10055 0.34774 
refriger 0.50052 -0.41037 -0.080337 0.42234 -0.44741 -0.25121 0.23837 -0.46393 0.51812 0.041989 -0.7146 -0.20369 -0.075749 0.2123 -0.048844 0.83282 0.082835 0.16268 -0.24368 0.974 -0.29805 -0.15614 -0.05626 -0.0075232 0.6201 0.29988 0.047507 0.10037 -0.11934 0.54262 -0.19531 -0.001132 -0.14157 -0.0098408 0.39586 -0.19441 -0.0068357 0.24442 0.41095 -0.074326 0.2046 -0.35186 -0.19797 0.4108 -0.071507 -0.38789 -0.22345 0.3634 0.54846 0.072521 0.094955 0.36444 0.17019 0.20267 0.0035574 0.092915 -0.096403 -0.059206 0.043892 -0.71605 0.25159 -0.30592 -0.17058 -0.77777 0.17769 0.25302 0.80569 -0.47666 0.37622 0.18588 0.089903 -0.89976 0.19282 0.65463 -0.41496 0.31346 -0.33805 -0.52827 -0.008092 -0.0056374 0.69659 -0.13102 -0.42204 0.13512 0.59624 -0.062911 0.49004 0.34548 0.45455 -0.39808 -0.048942 -0.15749 -0.39682 -0.12933 -0.45324 0.32492 -0.033102 -0.29424 0.50128 0.079143 
hometheat 0.20367 -0.13742 -0.1841 -0.050189 0.28306 0.011216 0.13469 -0.16309 -0.74472 -0.20994 0.23502 0.31921 -0.20552 -0.032151 -0.21617 0.22497 -0.4461 -0.47836 0.24016 0.0071978 -0.28147 0.22235 0.28341 -0.31502 0.26105 -0.054229 0.073901 -0.043304 0.23214 -0.53227 -0.067938 0.12601 -0.2319 0.35211 0.066234 0.2167 -0.041984 -0.37572 -0.36178 0.0156 0.30863 0.10168 0.21159 0.088403 0.063606 -0.31185 -0.41387 -0.16239 -0.22792 -0.070546 -0.10404 0.22662 -0.21361 0.29994 0.21175 0.15889 0.053287 -0.14516 -0.1248 0.083971 -0.021317 -0.24809 0.1724 -0.099761 -0.16455 0.30204 -0.61989 -0.12547 0.19948 0.23932 -0.21359 0.25678 0.10484 -0.39744 0.085509 -0.036817 -0.178 -0.20265 -0.25124 -0.072142 -0.065355 0.2977 0.098811 -0.099155 0.029022 -0.068599 -0.24176 0.027358 -0.22061 0.34193 -0.14171 0.088186 -0.072962 -0.25702 0.13924 -0.20097 0.059935 -0.042227 0.0025864 -0.18711 
2126108 0.2248 -0.12591 -0.024406 -0.48093 -0.40475 -0.0039715 0.0698 -0.023413 -0.22729 -0.066791 -0.3745 -0.046078 -0.24044 -0.46716 0.46585 0.33869 -0.17628 -0.033261 -0.021728 0.40789 0.18427 0.11991 -0.33873 0.0037753 -0.34713 -0.2646 0.27432 0.012255 -0.4937 0.27414 0.067428 0.055614 0.10083 0.019899 0.24858 -0.24839 0.28783 0.36761 0.25144 0.0072234 -0.2429 -0.19285 -0.44637 -0.095154 -0.070259 -0.073275 0.461 -0.074389 0.66024 0.03614 0.066747 -0.093422 0.40929 -0.2811 0.076117 0.076294 0.17081 -0.019696 0.0092063 0.019434 0.34602 -0.18765 -0.13204 -0.43082 0.10063 -0.00041032 -0.10899 0.10463 -0.084118 -0.088667 0.21971 -0.11765 0.34691 -0.028542 -0.25082 0.010072 0.24061 0.045488 0.026315 -0.25769 -0.068549 -0.19986 -0.020978 0.18205 0.20055 0.44745 0.003399 -0.086068 0.26333 -0.061343 -0.28875 -0.052836 -0.11609 0.20913 -0.20932 0.036122 0.049287 -0.14782 0.62093 -0.025294 
consol -0.075867 -0.010967 0.054079 0.044451 0.061332 -0.1264 0.10083 0.15688 -0.010815 -0.28926 -0.05753 -0.10803 0.24305 0.17633 -0.058197 -0.13774 0.21913 0.0078599 -0.15386 -0.12684 -0.17172 -0.12473 -0.075604 0.028216 0.26495 0.069914 -0.1194 0.10244 -0.084431 0.0015455 -0.16098 -0.094815 0.10171 0.13163 -0.090053 0.11319 0.074914 -0.059077 0.022622 -0.12078 0.30341 -0.013788 -0.11929 0.029399 -0.19567 -0.05792 -0.070863 -0.25964 -0.03175 -0.051043 0.12417 0.021728 0.0099182 0.038056 0.12824 -0.33371 -0.078917 0.18479 -0.29557 -0.071519 -0.20769 -0.0094371 0.024494 0.12977 0.043424 -0.28943 -0.0042597 -0.0033345 0.15315 0.10975 -0.1728 -0.081469 0.14928 -0.062424 0.17064 -0.028799 0.22611 -0.33077 -0.017575 0.17237 0.030256 0.35055 0.17793 0.020279 -0.20585 -0.074333 0.19424 -0.029125 0.079374 0.12016 0.033117 -0.054203 0.21912 -0.013589 0.073551 -0.41264 0.1386 0.28577 -0.021206 0.0088672 
card -0.12439 -0.38822 -0.23005 -0.1817 -0.22755 0.12275 0.0052827 0.34659 0.37115 0.03466 -0.08123 0.26141 -0.12795 -0.26893 -0.029907 0.18308 -0.26176 -0.28895 -0.1652 -0.048868 -0.15453 0.065161 -0.026067 0.020839 0.14023 -0.184 0.041939 0.14256 -0.23392 0.090275 -0.21905 0.37238 0.18283 0.55586 0.19975 0.20705 0.0073695 -0.10479 0.1716 -0.13094 -0.15699 -0.59126 -0.69611 -0.12157 0.46973 -0.036355 0.27502 -0.11642 0.33886 0.062674 -0.18946 0.21226 0.41234 -0.04214 0.037109 -0.044258 -0.16947 -0.19756 -0.28017 -0.21997 0.34152 -0.51447 -0.11381 -0.58625 -0.27302 -0.2364 0.21836 -0.075424 0.042921 -0.34539 -0.2 -0.016647 0.3785 -0.089865 0.20081 0.046461 0.22858 -0.19478 0.031938 0.34454 0.23015 -0.27649 0.11203 0.27488 0.25546 0.097883 0.26009 0.20282 0.1074 0.32149 -0.46754 -0.10701 -0.42118 -0.30497 -0.1489 -0.22776 -0.038488 -0.056623 0.53986 0.0067389 
wireless -0.18896 0.20031 0.025791 0.082511 0.0044796 0.097643 0.26179 0.18511 -0.20712 -0.66661 0.19848 -0.13657 0.066608 0.017407 0.17668 0.00069184 0.0055995 -0.036065 0.092464 0.055315 -0.19779 -0.208 0.077984 0.18914 0.12267 0.261 0.025856 0.30423 0.2669 -0.49595 -0.14227 -0.1785 0.19255 -0.10596 0.25158 0.080778 0.24088 -0.14493 0.13376 0.1782 0.48067 -0.21935 0.15188 -0.2839 -0.16394 -0.18354 -0.42987 0.1755 -0.00068631 -0.33266 0.36848 -0.08271 0.044047 0.1174 0.17051 0.0084609 0.053051 0.25313 0.10235 -0.1268 -0.087594 -0.27621 -0.082284 -0.1011 0.098131 -0.12577 -0.12181 -0.13794 0.053512 0.028484 -0.014387 0.043805 -0.36039 0.045032 -0.051328 -0.010587 -0.223 -0.14848 -0.22194 0.027132 -0.023692 -0.04839 -0.10621 0.11001 -0.0096521 -0.14518 -0.059941 -0.42875 -0.1018 -0.13639 -0.14328 0.22599 -0.054648 0.044096 0.10882 0.23034 -0.03877 0.13472 0.21108 -0.2294 
wii -0.24016 -0.55544 0.24165 -0.37154 -0.35391 0.35785 0.57274 -0.093057 -0.24757 -0.6424 -0.041003 0.209 -0.17465 -0.034415 0.25408 0.33098 0.092984 -0.38118 -0.0015193 0.34095 -0.8703 -0.25495 0.22227 0.078995 0.34653 0.40451 -0.52052 0.18333 -0.24176 -0.22628 0.084896 0.73106 0.30304 0.60951 0.23581 -0.13472 0.16354 0.39058 0.081855 -0.44754 -0.56915 -0.037719 -0.14024 0.078625 0.07169 -0.30032 0.16152 -0.44386 -0.33662 0.1986 0.62978 -0.1359 0.13361 0.64529 -0.1264 0.089394 -0.74592 -0.09722 -0.30081 -0.37537 0.62585 -0.39716 -0.45141 -0.31453 0.62054 -0.30639 0.54788 0.25099 0.38545 0.038427 -0.067324 -0.67728 0.022728 -0.28605 0.29438 -0.059623 -0.53438 -0.58227 -0.16449 -0.066526 0.18988 0.18494 -0.040461 0.45761 0.53476 0.481 0.376 -0.5912 -0.38006 0.25326 -0.054729 0.064404 0.054007 -0.35379 0.36918 0.021118 0.52605 0.058628 0.61775 -0.16 
playbook -0.41466 0.020057 0.04412 -0.12725 0.096751 0.28643 0.29969 0.24053 0.68126 0.70006 -0.37361 0.31864 0.42166 0.47473 -0.51502 0.14149 0.21137 0.13295 -0.065805 0.078359 0.070645 0.46786 0.57821 -0.0057114 0.52377 0.12453 -0.70227 -0.0011598 0.53691 0.62883 -0.33683 -0.54697 -0.2939 -0.33993 0.30614 0.043065 0.18926 -0.21222 -0.22265 -0.24551 -0.18666 -0.055949 0.49052 0.1877 0.06009 -0.26864 -0.15744 -0.26101 -0.17343 -0.18917 0.27083 0.34445 -0.4606 0.65824 -0.32918 -0.094989 0.27268 -0.056136 0.10088 -0.42876 -0.1964 0.42491 0.2282 0.11267 -0.00052905 -0.18577 -0.53965 -0.086957 0.42466 0.18777 -0.44312 -0.087975 0.087271 -0.25838 -0.49934 -0.14029 0.71982 0.10899 0.022184 -0.16982 0.23922 0.14127 -0.060535 -0.17308 -0.076792 -0.27859 0.10567 0.41067 -0.26928 -0.24071 -0.34752 0.14085 0.43101 -0.11534 0.13976 -0.10511 0.071271 -0.17681 -0.15343 0.075747 
radio 0.014814 0.15718 0.33322 0.38525 -0.27055 -0.046767 0.024763 0.13254 -0.28976 -0.40217 -0.15091 -0.10113 -0.36554 0.1544 0.22894 -0.046875 0.19238 -0.03995 -0.18539 0.26299 -0.061688 -0.02004 0.11742 -0.20856 0.15166 0.050905 0.16804 0.18461 -0.051008 -0.26907 0.045581 -0.43161 0.41575 0.33773 0.35384 0.22257 0.068412 -0.36593 0.04387 0.17773 -0.0046302 -0.33171 -0.1263 -0.12309 0.044786 -0.09313 -0.097581 -0.037582 0.23236 0.0021699 -0.20766 0.14734 -0.027471 -0.11153 0.080587 0.15246 0.13036 -0.031785 0.035781 0.026779 -0.059609 0.15925 -0.10793 -0.12962 0.34901 -0.24248 0.13319 0.11723 0.064741 -0.059036 0.070094 -0.020475 -0.05162 0.34617 0.29358 0.1451 0.16796 0.21582 -0.16587 0.43917 -0.0067454 -0.2643 -0.18052 0.08237 0.035258 0.10407 -0.23367 -0.29099 -0.17603 -0.14343 0.012725 -0.21143 -0.61827 0.33575 0.13038 0.21671 -0.15617 0.090247 -0.16755 0.057005 
watch -0.049438 0.055263 -0.25025 0.21593 0.19477 -0.062628 0.2771 0.023902 -0.086499 0.052712 0.10657 -0.336 -0.1751 0.3488 -0.15616 -0.18351 0.054622 -0.24403 0.025155 -0.39653 -0.35028 -0.024962 0.063118 -0.20162 -0.18172 0.26422 -0.12558 0.47919 0.39155 0.29743 -0.26963 -0.24849 -0.0073211 0.2327 0.35967 -0.0032965 -0.19654 0.0076825 -0.15553 -0.043352 0.031496 0.045732 0.062505 -0.060557 0.14544 -0.32131 0.11156 -0.30901 -0.13091 0.082096 0.56213 -0.2076 -0.059648 -0.36012 0.25563 -0.097617 -0.0067794 -0.14224 -0.26573 0.17225 -0.088263 0.0035325 -0.2167 -0.05392 0.23796 -0.3048 0.53661 0.055794 0.1655 -0.047186 -0.39354 -0.05789 0.089358 0.27302 0.10339 -0.043561 -0.37736 -0.22212 -0.041604 0.22227 0.076553 -0.19497 -0.29352 0.099319 0.22525 0.093973 -0.11661 -0.28483 -0.23687 0.33302 -0.11999 -0.049402 -0.12573 0.2398 -0.10518 -0.21106 0.039382 0.084763 -0.10323 0.11724 
2126339 0.24152 -0.14282 -0.029739 -0.4859 -0.40448 0.0020443 0.063752 -0.032869 -0.23187 -0.06235 -0.38233 -0.037962 -0.22295 -0.4628 0.46181 0.33549 -0.16516 -0.038725 -0.027842 0.40337 0.17863 0.11002 -0.34132 0.0043308 -0.33927 -0.26361 0.28302 0.012772 -0.48977 0.27369 0.077996 0.055421 0.082802 0.034858 0.24544 -0.25389 0.28076 0.37612 0.24945 0.020097 -0.24251 -0.19406 -0.45482 -0.087111 -0.059621 -0.068076 0.46174 -0.075888 0.66536 0.046823 0.068151 -0.096348 0.39516 -0.29155 0.075258 0.079265 0.15864 -0.014195 0.0053654 0.014182 0.343 -0.19686 -0.12992 -0.43347 0.11151 0.0026773 -0.11835 0.11206 -0.076194 -0.094257 0.21168 -0.11956 0.35271 -0.037062 -0.25327 0.013095 0.23437 0.049776 0.041122 -0.25236 -0.069101 -0.21526 -0.014573 0.20184 0.19355 0.45037 -0.0039306 -0.082692 0.26026 -0.058443 -0.27363 -0.044135 -0.11995 0.2024 -0.21193 0.022567 0.047596 -0.14475 0.6284 -0.029557 
2371074 0.23335 -0.12539 -0.019683 -0.48121 -0.39999 0.0032652 0.072634 -0.028296 -0.23422 -0.077824 -0.3802 -0.049639 -0.24138 -0.47451 0.46695 0.33329 -0.166 -0.034596 -0.035065 0.40958 0.17759 0.11963 -0.33966 -0.0022519 -0.34152 -0.26748 0.28086 0.016315 -0.49473 0.27709 0.079235 0.048269 0.097038 0.026654 0.24529 -0.25478 0.28758 0.37052 0.26229 0.0084256 -0.25364 -0.20611 -0.45634 -0.099899 -0.060303 -0.060191 0.47181 -0.066895 0.66527 0.050146 0.051562 -0.096981 0.41124 -0.2963 0.07752 0.075429 0.16589 -0.01982 0.015878 0.015962 0.3552 -0.19596 -0.14113 -0.43516 0.10796 -0.0040979 -0.11905 0.11369 -0.079117 -0.084981 0.20852 -0.11746 0.35274 -0.029148 -0.2548 0.0063622 0.24167 0.04889 0.034293 -0.25093 -0.064177 -0.20523 -0.0083234 0.19647 0.19504 0.45491 0.0044648 -0.086755 0.27137 -0.075967 -0.27503 -0.056318 -0.11957 0.21019 -0.20015 0.029822 0.053952 -0.15819 0.62483 -0.036069 
portabl 0.30673 -0.044176 -0.0055007 -0.18388 0.14143 0.097223 -0.19904 -0.2671 -0.09691 -0.17217 -0.093089 -0.042349 -0.23949 -0.28379 0.023821 -0.15155 0.012498 -0.24453 0.040485 0.28509 -0.086083 0.002466 -0.16225 0.067717 -0.2424 0.1259 0.12714 -0.51303 -0.1395 -0.0047101 0.030189 0.19656 0.00086213 0.25008 -0.12115 -0.18279 0.04448 0.15443 -0.00036183 0.1843 -0.56034 -0.4332 -0.20522 -0.00028033 0.42058 -0.16339 0.40922 0.2476 0.27272 0.3474 0.025215 0.025491 0.23567 -0.07079 -0.23404 0.19608 -0.13978 -0.15149 0.18852 -0.016096 0.28731 -0.09748 0.1253 -0.053814 0.0076716 -0.029702 0.23667 0.015489 -0.4433 -0.34452 0.2125 0.06138 -0.027716 0.10082 -0.03102 0.19019 -0.098822 0.020596 0.18391 0.16673 0.3137 -0.22081 0.017672 0.035152 0.23603 0.24385 -0.035753 0.16576 0.15783 0.073772 -0.14219 0.11811 0.15223 -0.036402 -0.16917 0.15031 0.067064 -0.1737 0.28759 -0.14116 
radar 0.024343 0.19682 0.38185 0.2364 -0.37723 -0.099152 -0.10118 -0.016865 0.063588 0.13869 -0.19325 -0.054349 -0.34121 -0.38207 0.10632 0.11081 -0.040645 -0.42667 0.24694 0.186 0.0083399 0.14585 0.20971 0.24949 0.07769 0.2737 -0.05518 -0.35333 -0.049554 -0.37513 0.15974 0.007935 0.48877 0.3623 0.49508 -0.023975 0.26376 0.50497 -0.5652 0.021963 -0.65285 -0.57238 -0.012403 -0.10385 -0.049451 -0.25716 0.3148 -0.14451 0.2468 0.091409 0.16192 -0.27208 -0.17619 -0.17177 -0.25244 0.3156 0.35302 -0.039278 -0.24607 -0.33379 -0.18442 0.31116 -0.17945 0.40527 -0.029739 0.46643 0.31089 0.023501 -0.34574 -0.1384 0.72507 0.1178 -0.13051 -0.30713 -0.28456 -0.088813 0.032552 -0.16658 0.16666 0.14621 0.31854 -0.22647 -0.74954 0.10054 0.32642 0.12849 -0.63517 0.38709 -0.15399 -0.033437 -0.30696 -0.53085 -0.090734 0.43421 -0.19938 0.51394 -0.27003 -0.33298 -0.32913 -0.056091 
detector 0.031983 0.19591 0.3756 0.23855 -0.37294 -0.092031 -0.094841 -0.023699 0.06076 0.14519 -0.18669 -0.06342 -0.33928 -0.39941 0.099571 0.11409 -0.043014 -0.42684 0.24319 0.17373 0.0054211 0.1452 0.20563 0.23674 0.064621 0.28668 -0.06344 -0.34802 -0.062513 -0.36355 0.16271 0.00045432 0.48678 0.36965 0.48633 -0.020519 0.26705 0.50277 -0.56883 0.0043698 -0.64631 -0.56752 -0.019247 -0.096828 -0.04388 -0.26347 0.31886 -0.1335 0.25582 0.085185 0.17225 -0.2828 -0.18419 -0.1697 -0.26363 0.32449 0.3494 -0.025659 -0.23069 -0.33159 -0.19274 0.31463 -0.16378 0.40463 -0.033974 0.46617 0.30391 0.038438 -0.34076 -0.12665 0.72567 0.13237 -0.13283 -0.31669 -0.30087 -0.095214 0.025826 -0.16623 0.15927 0.14232 0.31925 -0.21884 -0.75952 0.093969 0.32405 0.12799 -0.63595 0.39726 -0.14047 -0.02255 -0.31249 -0.52079 -0.08538 0.44857 -0.19732 0.51045 -0.2746 -0.34641 -0.33871 -0.061153 
toshiba -0.18612 0.12509 -0.22659 -0.32159 0.11871 0.10844 -0.19701 -0.29642 1.216 0.79171 -0.50986 0.31719 0.3896 -0.31647 -0.3991 -0.3211 -0.021422 0.17823 -0.03521 -0.57053 0.34846 0.74273 0.32846 -0.37214 -0.11337 -0.094076 0.41347 -1.1931 -0.5555 0.15402 -0.16412 -0.13861 -0.44347 -0.26871 -0.67147 -0.49029 -0.30959 0.38364 0.0066016 -0.09709 -0.35772 0.57729 0.31116 0.21348 -0.27509 -0.099663 0.29651 -0.30791 -0.0085275 0.099494 -0.42854 0.22822 -0.74041 -0.35589 -0.2469 0.061376 -0.07508 -0.028424 -0.030803 0.033088 -0.20599 0.57382 0.4796 0.83364 -0.17896 0.19779 -0.44107 0.13157 0.19856 -0.32875 0.36603 0.34713 -0.22035 -0.56247 -0.64332 -0.13297 0.52612 0.36892 0.60794 -0.49293 -0.21907 0.036319 -0.15297 -0.57646 0.090333 -0.38023 -0.016613 0.35 -0.0084802 -0.17037 0.16223 0.23663 1.0942 0.074946 0.20523 -0.26452 0.31812 0.53102 -0.31715 0.52415 
king -0.42481 0.15129 0.10514 0.12368 0.052944 -0.22807 0.22131 0.181 0.092619 0.018743 0.079146 -0.10485 0.24273 0.3813 -0.17904 -0.1303 0.092575 0.19157 0.096254 -0.52259 0.16072 0.015882 0.016565 0.06284 0.045776 -0.19408 -0.15015 0.18069 0.057834 -0.15173 0.040413 -0.17744 0.23518 -0.38011 -0.13728 0.0046709 -0.13868 -0.27222 -0.085641 -0.096673 0.22527 0.50865 0.19561 -0.06118 -0.31215 0.20682 -0.33183 -0.19706 -0.23341 -0.12948 0.011831 -0.18778 -0.38338 0.27597 0.23422 -0.17259 0.17224 0.16081 0.10574 0.042204 -0.34097 0.0020736 0.18902 0.35355 -0.010107 -0.23232 -0.23736 0.22491 0.20616 0.18076 -0.11905 -0.26117 -0.1747 -0.087586 0.1581 -0.010488 0.14874 0.15397 -0.11678 -0.16009 -0.28902 0.18328 0.21165 -0.16315 -0.49191 -0.21753 0.029369 -0.31494 -0.24105 -0.15293 0.43987 0.034704 0.13808 0.13854 -0.04836 0.0174 -0.27458 0.15707 -0.55508 0.14937 
lion -0.43164 0.15805 0.097025 0.12704 0.064304 -0.2295 0.20495 0.18351 0.099844 0.024516 0.078453 -0.094826 0.25272 0.37612 -0.17068 -0.13162 0.10834 0.18885 0.10541 -0.52956 0.16246 0.029869 0.031177 0.064806 0.040487 -0.18714 -0.14875 0.17432 0.068105 -0.164 0.0311 -0.18012 0.23127 -0.37198 -0.13813 0.01698 -0.12397 -0.26781 -0.089861 -0.091052 0.21535 0.50731 0.20469 -0.064647 -0.32125 0.20988 -0.33037 -0.1892 -0.23731 -0.13547 0.017001 -0.18784 -0.383 0.28684 0.22539 -0.17312 0.17176 0.16015 0.10773 0.044086 -0.33179 -0.0024445 0.17957 0.35655 -0.015062 -0.22702 -0.23802 0.22706 0.21395 0.19097 -0.12159 -0.25815 -0.18751 -0.10649 0.15683 -0.015496 0.14998 0.16024 -0.12369 -0.15563 -0.2911 0.17432 0.20826 -0.16419 -0.49471 -0.21615 0.016634 -0.31076 -0.22795 -0.15121 0.43633 0.0234 0.13241 0.12566 -0.043351 0.013405 -0.2783 0.14969 -0.53851 0.14378 
bar 0.018202 0.12281 -0.28136 0.19865 0.013799 0.089596 -0.2515 -0.17431 0.77509 0.7678 0.010646 0.40891 -0.11386 -0.5834 0.055004 -0.22842 -0.23534 -0.13114 0.082724 -0.12844 0.3872 0.21787 0.070128 -0.33896 -0.30913 0.10905 0.38134 -0.83938 -0.44252 -0.076985 0.16724 -0.16313 -0.21615 0.005397 -0.0089789 -0.28986 -0.27787 0.40988 0.03761 -0.068517 -0.47487 -0.17651 -0.33253 -0.24265 0.019508 0.056496 0.14824 0.22958 0.29558 0.023352 -0.38163 -0.15103 0.053734 -0.30581 0.14852 0.36522 -0.13262 -0.072706 -0.26637 0.15947 0.1339 -0.14245 0.02309 0.1088 0.0085539 0.44363 0.46075 0.11455 0.18042 -0.15127 0.493 0.23458 -0.14246 -0.11348 -0.16748 0.13846 0.021225 0.23736 0.23618 0.041506 -0.17364 -0.69798 -0.49868 -0.025659 0.24026 -0.26824 -0.11658 0.19716 -0.048573 0.0049004 -0.55203 -0.3211 -0.73515 0.24514 0.097054 0.57502 -0.18108 -0.33424 -0.105 0.19234 
web 0.010325 -0.067436 0.22895 0.21076 -0.50232 -0.41378 0.03703 0.21625 -0.2573 0.18034 -0.030131 0.052234 -0.082893 0.51067 -0.058058 0.27823 0.11682 0.53105 -0.17131 0.082653 -0.29343 -0.45365 0.045792 -0.048538 0.207 -0.063717 0.080431 0.29653 0.33359 0.1906 -0.13487 -0.086136 0.28187 -0.45072 0.046103 0.18674 -0.12618 0.23727 -0.27559 -0.19047 0.36752 0.46122 0.0071544 -0.21342 -0.17078 0.097983 -0.4523 0.0076141 -0.067541 -0.16658 0.27557 -0.10032 -0.16037 -0.34187 -0.00137 -0.23366 0.12864 0.39907 0.0076846 0.33897 -0.24801 -0.25644 -0.5808 -0.26534 0.43685 -0.095353 0.75913 -0.14933 -0.21643 0.13346 -0.040734 0.021819 -0.24447 0.14375 0.022289 -0.19358 -0.041017 0.086539 -0.1582 0.23032 -0.23261 -0.053629 0.10445 -0.27473 -0.21073 0.21217 0.1562 -0.2583 -0.22967 0.1321 -0.015842 -0.051136 -0.17727 -0.33814 0.0027055 0.181 -0.14874 -0.20822 -0.33864 -0.053062 
dell -0.23256 0.10757 -0.18301 -0.14643 0.12233 0.25866 -0.03066 -0.23461 1.0169 0.71308 -0.27895 0.50397 0.31411 0.25351 -0.38555 -0.30937 -0.19464 -0.10875 0.20608 -0.45331 0.14364 0.70957 0.57506 -0.37317 0.17713 0.026421 0.37564 -0.97525 0.089075 0.028554 -0.23864 -0.19992 -0.46645 -0.16468 -0.19247 -0.30444 -0.15074 0.079255 -0.34917 -0.07456 -0.31472 0.26154 0.55881 0.14743 -0.20325 -0.37074 -0.12166 -0.29711 -0.25144 -0.12742 -0.3316 0.31585 -0.78641 -0.10082 -0.0954 -0.11874 -0.091463 0.076626 0.035949 0.12528 -0.43512 0.35193 0.32617 0.59941 -0.15995 0.18345 -0.61612 -0.00829 0.19369 -0.12135 0.20829 0.46214 -0.17567 -0.52132 -0.55945 -0.12502 0.29189 0.24442 0.41907 -0.38437 -0.27113 0.19074 -0.067673 -0.35254 -0.033403 -0.34228 -0.064956 0.29785 -0.29579 0.058255 -0.02079 0.25402 0.99852 -0.075493 0.24938 -0.18014 0.31799 0.30685 -0.47145 0.46099 
ihom 0.32055 0.027012 0.42539 0.60299 -0.21492 0.71773 0.23171 0.07777 -0.53184 -0.018885 1.1013 -0.22675 -0.35047 0.027604 0.61862 -0.46775 0.014925 -0.23619 0.34887 0.75511 -0.26167 -0.47086 0.0094758 -0.082697 -0.11633 -0.010782 0.1117 0.050439 0.91569 0.057478 0.59174 0.039555 0.26229 0.0098118 0.95351 0.22405 0.57074 0.60437 -0.58684 -0.18804 -0.17772 -0.69593 -0.67145 0.13521 0.11235 -0.12207 -0.11717 0.52207 -0.065659 -0.10841 -0.25597 -0.028949 0.89201 0.69071 0.38671 -0.30933 -0.55414 0.47866 -0.414 -0.072389 -0.21188 -0.078887 -0.25362 -0.22516 0.44566 0.16015 0.45795 -0.13762 -0.50332 -0.0063569 0.1969 0.22703 0.15076 0.56676 0.60583 0.30989 -0.87108 -0.04654 -0.079373 0.20353 -0.20457 0.097138 -0.21538 0.6284 0.077142 0.37397 -0.30145 -0.32167 -0.52279 0.65803 -0.45981 -0.40697 -0.67195 -0.12775 -0.073052 0.73011 -0.44411 -1.1161 -0.13668 -0.4862 
2 0.013481 -0.092075 0.33859 0.26179 -0.15707 -0.59961 -0.11411 -0.021543 -0.53417 -0.40717 0.023031 0.094499 -0.26025 0.73413 0.2902 -0.36401 0.093173 0.058639 0.25811 -0.17479 -0.23751 -0.20649 0.021331 -0.12687 -0.036013 -0.057917 0.48152 0.013709 0.29008 -0.086121 0.16538 0.5052 0.39871 -0.092065 -0.041488 0.31449 0.22587 -0.33291 -0.063729 0.4642 0.34606 -0.21275 0.58926 0.13265 0.31564 -0.039124 -0.15797 0.034176 -0.064702 0.15631 -0.085486 0.43165 -0.035059 0.15348 0.21592 0.24103 0.11809 -0.32774 0.055907 0.046336 -0.11726 -0.33194 -0.13586 0.1473 0.092443 -0.30626 0.39074 -0.072583 -0.41876 0.14798 0.042844 -0.3591 0.19676 0.57821 0.68497 0.31756 -0.3973 0.15013 -0.21379 0.29982 -0.23422 0.12097 0.0090932 -0.064189 0.17365 0.19378 -0.11875 0.14386 0.0065095 0.10217 0.084867 -0.16821 -0.20733 0.28768 -0.17659 -0.26641 -0.31332 0.43939 -0.11213 -0.091428 
webcam 0.033003 -0.052426 0.34231 0.31487 -0.66875 -0.47807 0.005629 0.30294 -0.42508 0.22728 -0.034159 0.06061 -0.14541 0.60717 -0.070164 0.32551 0.16572 0.63232 -0.23414 0.099616 -0.41967 -0.59763 0.053864 -0.068292 0.17885 -0.079689 0.12167 0.31604 0.41625 0.16958 -0.15268 -0.12007 0.43081 -0.59881 0.082399 0.24438 -0.20882 0.38867 -0.42906 -0.26186 0.40069 0.63187 -0.080701 -0.322 -0.2283 0.1363 -0.58097 -0.0070284 -0.061147 -0.18684 0.36491 -0.21453 -0.21002 -0.50189 0.015171 -0.31237 0.15518 0.60038 0.0083824 0.46138 -0.32681 -0.35834 -0.78778 -0.34679 0.62766 -0.10958 1.0864 -0.18338 -0.38344 0.14047 0.051331 0.08113 -0.32674 0.15161 0.032734 -0.26924 -0.11186 0.14187 -0.18234 0.32019 -0.29835 -0.13368 0.084476 -0.34633 -0.25958 0.34845 0.18699 -0.41729 -0.36103 0.21393 -0.020305 -0.077831 -0.28539 -0.41937 0.025661 0.31728 -0.25699 -0.36843 -0.52169 -0.11259 
battlefield -0.12129 0.074955 -0.52702 -0.3608 0.28329 -0.11159 0.16769 -0.24794 0.78224 0.5135 -0.082852 0.27018 0.072771 0.32363 0.18985 0.19072 -0.30796 0.36668 -0.11936 0.07049 0.25793 -0.18563 -0.13015 -0.32465 0.30347 -0.31466 0.30057 0.052901 0.10107 0.74427 -0.091446 0.18686 -0.80652 -0.24954 -0.4279 0.014688 0.12436 -0.27601 0.21711 -0.048588 0.28853 0.10565 0.21764 0.023473 -0.1246 0.16947 0.10601 0.35541 -0.1291 0.21479 -0.54135 0.45132 -0.092587 -0.088608 -0.058745 -0.00066468 0.056043 -0.00053161 -0.020009 0.2472 0.048217 0.16412 0.084033 -0.35178 -0.31788 0.23779 -0.5173 -0.035286 0.20173 0.27986 -0.46684 0.29077 -0.38863 0.10192 -0.032578 -0.084823 0.22333 0.26189 -0.20749 -0.10118 -0.3575 0.24923 0.6039 -0.29509 -0.28185 -0.3975 -0.019287 0.2119 0.23694 -0.01804 0.63338 0.21864 0.35071 -0.65463 -0.20222 -0.20453 0.53855 0.43595 0.23189 0.028962 
kicker 0.37664 -0.73914 -0.26835 -0.24466 0.096605 -0.14358 -0.2266 0.07952 -0.079938 -0.6929 0.19002 -0.6641 -0.2416 0.13975 0.51711 0.39707 -0.38298 0.49251 0.0015684 0.21357 0.29894 -0.70016 -0.21237 0.57817 0.37548 -0.14871 -0.52895 0.69247 0.7158 0.66672 -0.24849 0.035405 -0.15537 0.046613 -0.065955 -0.094171 -0.041147 0.19496 0.1552 0.11385 -0.57536 -0.63392 0.12319 -0.067849 0.43692 0.3768 0.52882 0.15476 -0.13401 -0.51801 0.3724 -0.27937 0.53442 0.42729 -0.27 0.60991 0.09486 -0.12181 0.52555 0.47844 0.1795 -0.11211 -0.20146 0.12268 -0.53044 -0.35656 -0.20221 0.32324 -0.62439 -0.24564 -0.13649 -0.25612 0.53468 0.33454 -0.018998 -0.30972 -0.078354 0.41488 -0.35686 -0.23286 -0.086602 -0.25128 0.45798 0.10382 -0.40542 0.32382 -0.13259 -0.085936 0.24802 -0.54133 0.13416 0.2358 -0.084111 -0.42723 0.13582 0.47621 -0.48832 -0.29675 -0.020172 0.46714 
tivo 0.47313 -0.39854 0.5971 -0.1948 -0.34863 -0.81227 0.037024 0.56792 -0.31075 -0.44092 0.31654 -0.31946 -0.065709 -0.11838 0.51927 -0.15836 -0.18914 0.64332 0.30027 -0.36893 0.71555 -0.036655 -0.40558 0.71363 -0.39777 -0.32587 -0.099243 0.16184 0.44163 0.22262 0.68 0.28035 -0.11318 -0.22775 0.46565 0.51823 -0.19838 -0.22901 0.19404 0.5297 0.18374 -0.42257 -0.4012 -0.16451 -0.025297 0.097093 0.32723 -0.017777 -0.18285 0.2884 -0.23822 -0.39683 1.1059 0.0013197 -0.41725 -0.17845 -0.11547 -0.68722 0.26088 0.35553 0.43623 -0.00041937 -0.28177 -0.035076 -0.19137 0.15735 0.54603 0.35001 -0.38054 -0.15828 -0.48914 -0.14758 0.23232 0.47287 0.59909 0.42131 -0.18489 0.020559 -0.19308 0.56923 0.25827 0.30127 0.21851 0.66484 0.27059 -0.12893 0.044132 0.010879 0.72432 0.19848 -0.2289 -0.53115 -0.28902 -0.067486 -0.35017 -0.013354 -0.18002 0.13244 0.48391 0.23301 
3d -0.19483 0.067053 -0.56905 -0.4404 0.3416 -0.19797 0.27453 -0.21855 0.92356 0.409 -0.1121 0.30725 0.14216 0.56088 0.2532 0.22409 -0.32027 0.38864 -0.17751 0.043347 0.18073 -0.35688 -0.25064 -0.33233 0.50347 -0.37221 0.28709 0.20039 0.16674 0.90984 -0.21854 0.22638 -0.92257 -0.24744 -0.47434 0.1042 0.22208 -0.46019 0.22907 -0.073445 0.43888 0.037654 0.21041 -0.0015083 -0.20567 0.20599 0.094281 0.36877 -0.16471 0.24443 -0.55257 0.5144 -0.059248 -0.080002 -0.015092 -0.16477 0.051002 0.089262 -0.12973 0.26614 -0.01399 0.11873 0.066791 -0.48226 -0.35447 0.1209 -0.60247 -0.064482 0.24498 0.41416 -0.67704 0.31857 -0.41284 0.11241 0.063896 -0.10899 0.32034 0.15734 -0.33261 0.0085621 -0.41125 0.43227 0.85727 -0.2695 -0.50423 -0.4575 0.04298 0.23592 0.32905 0.042866 0.78494 0.26549 0.48629 -0.83133 -0.26461 -0.41481 0.69913 0.60133 0.31415 -0.042687 
dyson -0.089829 -0.19517 0.40132 0.25083 0.0092145 -0.31395 -0.41842 0.21471 0.52439 0.7943 0.004941 -0.31066 -0.14485 -0.4673 -0.061304 0.15468 0.36969 0.8747 0.11379 0.2582 0.46805 -0.49881 0.066958 0.50046 -0.22814 0.23557 0.010326 0.66473 -0.49701 -0.1163 0.40078 0.3313 0.20014 -0.13523 0.10594 0.32051 -0.43913 0.30291 0.1454 0.17727 -0.003861 0.044975 0.46516 -0.37507 -0.24999 0.41006 -0.056624 0.49588 0.33722 -0.51868 0.030343 -0.26257 0.44462 -0.52375 0.044469 0.41312 -0.0018487 -0.73682 -0.22274 0.67001 0.43174 0.096925 -0.22585 -0.00018859 0.19283 0.16485 0.1042 0.35917 0.34987 -0.46197 -0.23104 -0.44099 0.19147 0.19324 -0.12985 0.087359 0.11066 0.14597 -0.01947 0.21568 0.12249 -0.031998 -0.11838 -0.23843 -0.26584 -0.18849 0.075633 -0.096299 0.22993 -0.60337 -0.40373 -0.5473 -0.5873 0.42807 -0.11538 0.3748 0.40095 0.17003 0.45615 0.30011 
pro -0.047761 0.075692 -0.17578 -0.39866 0.1238 -0.19031 -0.015898 0.0042596 0.13706 0.045086 -0.23771 -0.13978 0.074295 -0.49421 -0.07069 -0.0022223 0.11806 0.33725 -0.25101 -0.26954 0.25805 0.014205 -0.34862 0.047984 -0.34569 -0.30684 -0.025739 -0.040247 -0.64696 0.23898 0.025731 0.041056 -0.0056078 -0.14943 -0.58871 -0.025458 -0.13672 0.041725 0.44308 0.012936 0.15959 0.38081 -0.18654 0.018769 -0.026773 0.31795 0.46443 0.015167 0.26464 0.29743 -0.16636 0.003579 0.1522 -0.19631 -0.17926 0.13287 0.17371 -0.077253 0.12284 -0.02803 0.18152 0.18565 0.23089 0.10106 -0.20169 -0.15264 -0.0094957 0.20336 0.039448 -0.20662 -0.11888 -0.15531 -0.00099267 0.08064 -0.0071708 0.0098105 0.32062 0.25579 -0.030651 -0.14307 -0.0054576 0.039416 0.23022 -0.33036 0.030701 -0.011127 0.1107 0.026027 0.33365 -0.24223 0.29359 0.086392 0.060438 0.066176 -0.082872 -0.22528 0.036392 0.33384 0.18756 -0.042993 
washer 0.46906 -0.083924 0.1579 -0.25983 -0.3597 -0.51254 -0.63062 -0.25637 -0.072226 -0.28657 0.47841 -0.33831 -0.27699 -0.56051 -0.024596 -0.24078 0.019479 0.50654 0.30411 -0.56248 0.36524 0.072283 -0.2172 0.26306 -0.16064 -0.17518 0.53669 0.20189 -0.53978 -0.38832 0.13752 0.19215 0.32787 0.66802 -0.75907 -0.14762 -0.063781 0.62461 0.61939 0.028664 0.38527 0.46449 -0.011956 0.13399 0.012438 -0.11398 -0.024579 0.34237 0.21913 0.32617 0.70489 0.030297 -0.12386 -0.97426 -0.022018 0.21088 -0.14473 -0.31973 -0.20906 0.54948 0.51524 0.061052 0.081002 0.26794 -0.28807 0.1307 0.25105 0.39088 0.17094 -0.32511 0.61693 -0.25913 -0.18585 0.70649 0.23705 0.058902 -0.48338 -0.17727 0.073035 -0.37151 -0.16142 -0.45719 -0.74162 -0.52861 -0.1419 -0.39303 0.12428 0.32438 0.66318 -0.52102 0.40725 -0.52292 0.17556 0.4254 0.1273 0.03362 -0.1277 -0.064206 0.20964 0.76197 
book -0.046477 0.088873 -0.27113 -0.57296 0.18914 -0.26863 0.0037478 -0.0079604 0.25449 0.077585 -0.29017 -0.19214 0.1029 -0.57751 -0.061449 0.0016078 0.12195 0.4781 -0.32577 -0.3371 0.34502 -0.044422 -0.45959 0.048693 -0.42911 -0.41805 -0.030603 0.009949 -0.79626 0.41322 0.014115 0.072698 -0.095425 -0.2209 -0.78757 -0.015827 -0.14399 0.020702 0.60084 0.008854 0.25732 0.4673 -0.22755 0.019795 -0.011459 0.443 0.60742 0.053258 0.34395 0.39633 -0.26107 0.074023 0.24254 -0.27022 -0.25332 0.14447 0.21869 -0.10921 0.17713 -0.0067161 0.22889 0.22679 0.2894 0.076378 -0.28847 -0.20188 -0.046076 0.25084 0.056697 -0.22435 -0.22601 -0.17355 -0.042693 0.17222 -0.0014871 -0.0050713 0.43779 0.3503 -0.074637 -0.16362 -0.032945 0.086532 0.38029 -0.43488 0.0021909 -0.051839 0.15883 0.03655 0.48019 -0.31738 0.43611 0.13364 0.10676 0.0054373 -0.14276 -0.34431 0.11609 0.46942 0.27914 -0.056897 
mac -0.049595 0.094031 -0.27375 -0.5682 0.18468 -0.26309 0.0093398 -0.018208 0.26217 0.085897 -0.28547 -0.1754 0.10245 -0.58002 -0.055685 0.0059198 0.11769 0.48348 -0.33395 -0.32891 0.34569 -0.045359 -0.46597 0.045803 -0.41753 -0.42572 -0.026709 0.012338 -0.80097 0.42581 0.017499 0.054553 -0.090448 -0.22724 -0.79985 -0.014668 -0.15697 0.010527 0.6033 0.013042 0.25862 0.46713 -0.22864 0.023225 -0.013802 0.43762 0.6045 0.061879 0.34642 0.39972 -0.25023 0.075815 0.23065 -0.26725 -0.2405 0.13152 0.21992 -0.096822 0.17034 0.0106 0.22751 0.22292 0.30169 0.070937 -0.28684 -0.19866 -0.045244 0.25454 0.06423 -0.22276 -0.24016 -0.18059 -0.033138 0.16328 -0.01748 0.0041888 0.44475 0.3507 -0.064702 -0.16494 -0.045779 0.090558 0.3811 -0.43389 0.0013236 -0.045676 0.15415 0.033249 0.48678 -0.31181 0.44092 0.12376 0.11562 -0.0026338 -0.13493 -0.33933 0.12803 0.47141 0.27622 -0.060862 
batman 0.62244 -0.19809 -0.33246 -0.015616 -0.36441 0.37604 -0.37111 -0.25309 -1.1396 -0.76497 0.89883 -0.24477 0.19055 -0.081778 0.13864 -0.14731 -0.23902 0.073914 0.44651 0.047189 0.009376 0.11441 0.15526 0.30035 -0.19948 0.45991 -0.28663 0.43801 0.2224 -1.1832 0.60042 0.29156 -0.56879 0.0081317 0.98143 -0.074246 0.0011054 0.51427 -0.35706 -0.23811 -0.32858 -0.83976 -0.63851 0.063417 -0.182 -0.17241 -0.13758 0.040674 0.066236 -0.21028 -0.062488 0.060978 0.63772 -0.77259 -0.10526 0.17903 -0.3834 -0.35379 -0.065433 0.28053 0.47437 0.26469 0.32259 -0.48257 -0.29525 0.65413 -0.31062 0.073139 0.5117 -0.17696 0.11157 0.20533 -0.18093 -0.08781 -0.30313 -0.16543 0.35795 0.20467 0.42424 -0.30638 -0.51769 0.07753 -0.14046 -0.28342 0.22575 -0.55268 -0.22202 -0.019667 -0.27614 -0.10439 0.072841 -0.052635 0.19769 0.053722 0.41824 -0.027344 0.30727 0.0079888 -0.32196 0.55696 
ipod 0.07318 -0.077512 0.099992 0.45245 -0.11603 0.3152 -0.29377 -0.012378 -0.031594 0.35441 0.079897 0.086197 0.034028 0.061403 -0.16462 0.018825 0.31174 -0.33817 0.41796 0.59977 -0.0091658 -0.14584 -0.077176 0.21048 0.18391 0.17939 -0.090784 -0.012181 0.48984 0.25923 0.16116 -0.3082 0.12662 0.25873 0.3196 0.05408 0.28222 0.25472 -0.27484 0.15554 -0.49132 -0.5778 0.081431 -0.052457 0.18973 -0.21852 0.077717 0.19145 -0.040019 -0.33167 0.083785 -0.21874 0.49929 -0.029677 -0.17456 -0.08898 -0.024107 0.15801 0.055742 0.20464 0.046783 0.03321 -0.47036 0.062837 -0.19274 0.46846 0.0068991 -0.0041605 -0.43572 -0.12303 -0.069665 0.057125 0.036095 -0.083224 -0.012779 0.11451 -0.32536 0.12241 0.0044308 0.27013 0.11586 -0.44002 -0.20627 0.43755 0.28093 0.40876 -0.20009 0.32693 0.13066 0.19614 -0.79254 -0.1685 -0.31847 -0.33213 0.30101 0.45193 -0.1908 -0.87032 0.33193 -0.068463 
bose 0.36759 0.3787 -0.17593 0.47539 0.46386 0.34015 0.1039 0.1108 -0.47153 0.076486 0.60124 -0.50279 0.0026769 0.61782 0.25967 -0.2268 0.27067 0.37536 -0.2365 0.69243 -0.17016 -0.50794 0.10717 -0.16883 0.39223 -0.24055 0.16634 0.25308 0.52599 0.58233 0.1106 -0.48682 -0.38345 -0.43614 -0.29635 0.16229 0.20078 0.018049 0.17947 -0.47996 0.63511 0.39839 -0.029368 0.2585 -0.0054468 0.24379 -0.36145 0.33358 -0.66373 -0.022939 -0.75679 0.34913 0.21257 0.55349 0.20087 -0.2352 -0.18115 0.72725 -0.031488 0.25386 -0.26553 0.080285 -0.031105 -0.10684 0.10453 0.1597 -0.29559 -0.29686 -0.10349 0.57975 -0.54898 0.19958 -0.1881 0.36742 0.50532 -0.17495 -0.40377 0.020377 -0.10102 0.24829 -0.37173 0.37213 0.55112 -0.08167 -0.030227 -0.18388 -0.080656 -0.43474 -0.17755 0.50098 0.70243 0.044671 -0.38178 -0.64457 0.0011549 0.24171 0.027362 0.26187 -0.33052 -0.34519 
playstat -0.063204 -0.077053 0.25228 0.14584 -0.031054 -0.21766 0.093968 0.28482 -0.30151 -0.73126 -0.043732 -0.27314 0.30686 0.18974 -0.076849 -0.2645 0.3771 -0.11186 -0.21042 -0.2509 -0.39438 -0.25563 -0.1918 0.16846 0.30234 0.18169 -0.23341 0.23214 -0.19489 -0.26803 -0.22618 -0.095678 0.42881 0.3539 -0.00070629 0.18688 0.06069 -0.046446 -0.026018 -0.108 0.41689 -0.14676 -0.32391 -0.025184 -0.26113 -0.11756 -0.093831 -0.46716 0.037846 -0.12568 0.38528 -0.15743 0.13727 -0.02857 0.24227 -0.54252 -0.15312 0.25303 -0.46561 -0.13533 -0.2779 -0.15141 -0.063226 0.20574 0.14378 -0.55014 0.24056 0.031699 0.11384 0.06666 -0.1268 -0.20202 0.37462 -0.10635 0.35847 0.0073099 0.22548 -0.65701 -0.023385 0.35742 0.16034 0.44141 0.13664 0.18456 -0.27326 0.061417 0.31053 -0.1288 0.11923 0.2177 -0.10649 -0.1679 0.18854 0.1826 0.13362 -0.60607 0.092779 0.31793 -0.041904 -0.033855 
televis 0.20297 -0.17066 -0.14253 -0.032662 0.26612 -0.038791 0.15397 -0.1567 -0.79066 -0.21753 0.18741 0.29285 -0.17955 -0.021771 -0.29133 0.23902 -0.42474 -0.47265 0.21826 -0.015057 -0.2993 0.26419 0.35081 -0.33161 0.31883 -0.029207 0.047978 -0.074771 0.24346 -0.55257 -0.092793 0.076796 -0.19607 0.33684 0.046377 0.21112 -0.032462 -0.37057 -0.36478 0.0013152 0.32585 0.15466 0.26232 0.14454 0.067265 -0.33795 -0.46508 -0.23474 -0.24493 -0.10435 -0.058728 0.2542 -0.29231 0.3793 0.19559 0.18422 0.090457 -0.16008 -0.12698 0.025164 -0.026628 -0.2546 0.18677 -0.029183 -0.13406 0.29339 -0.6348 -0.13325 0.22543 0.24744 -0.24889 0.20848 0.12145 -0.42213 0.04521 -0.047027 -0.14304 -0.21939 -0.25775 -0.070265 -0.050139 0.29453 0.060738 -0.11729 0.047068 -0.083643 -0.23677 0.04006 -0.22775 0.33111 -0.19103 0.09568 -0.031894 -0.21659 0.14951 -0.23758 0.023705 -0.024886 -0.017727 -0.1824 
projector 0.28016 0.23342 0.16713 0.79649 0.43745 0.057211 -0.47633 0.027502 -0.89958 -0.0019531 0.51404 0.19535 -0.55027 -0.37653 0.26783 -0.38707 0.085338 -0.64829 0.29235 0.22941 0.045164 0.12462 -0.099954 0.5414 -0.068559 0.20891 -0.15361 0.13777 -0.083219 -0.17163 0.15692 -0.36915 -0.12668 0.17299 0.16059 0.40017 0.1698 -0.038003 0.015561 -0.33507 -0.13555 0.14612 -0.30912 -0.081083 -0.39583 -0.077414 -0.0020854 0.44908 0.19269 -0.50464 -0.13978 -0.099875 0.21262 -0.14535 0.19467 0.1896 0.0059253 0.78008 -0.28498 0.3532 0.22978 0.27376 -0.54145 -0.358 -0.25128 0.98782 -0.27299 -0.16322 0.065837 0.47359 0.47822 0.1164 0.044482 -0.14937 0.44721 0.039726 -0.67885 0.11959 0.21937 -0.51616 0.24097 -0.22937 -0.44023 0.019043 -0.3834 0.14661 -0.23385 -0.12441 0.039799 -0.10055 0.1549 -0.26551 -1.3535 0.11342 -0.31386 0.92342 -0.67795 -0.78998 -0.20521 -0.29203 
america -0.39669 0.16105 0.085486 0.082298 0.048901 -0.21663 0.15943 0.14466 0.073638 0.0083889 0.080063 -0.099941 0.18215 0.26808 -0.12839 -0.14133 0.06337 0.15161 0.1302 -0.52728 0.17959 0.029138 -0.016008 0.086247 -0.069891 -0.20321 -0.092247 0.12586 -0.013436 -0.22132 0.08135 -0.12683 0.24642 -0.34066 -0.15687 -0.020084 -0.16669 -0.22889 -0.082363 -0.044678 0.1431 0.49228 0.12926 -0.10152 -0.29357 0.24154 -0.27773 -0.15931 -0.18541 -0.081786 -0.025676 -0.2291 -0.34544 0.19319 0.22336 -0.12986 0.15188 0.13035 0.13177 0.08801 -0.27433 -0.0040348 0.19124 0.33622 -0.038381 -0.17889 -0.19319 0.23733 0.15217 0.12431 -0.044632 -0.21808 -0.1876 -0.11251 0.14848 0.0060467 0.074218 0.16407 -0.091511 -0.17693 -0.28881 0.12211 0.1767 -0.14327 -0.4557 -0.16971 0.0019171 -0.32017 -0.21332 -0.15919 0.45206 0.035881 0.095327 0.161 -0.061148 0.046891 -0.29047 0.12302 -0.52322 0.13566 
captain -0.38067 0.14916 0.085666 0.10053 0.041734 -0.21959 0.15228 0.15409 0.077028 0.0072485 0.086833 -0.10407 0.19769 0.27095 -0.14158 -0.13549 0.063992 0.15671 0.12784 -0.52128 0.17899 0.014551 -0.035126 0.074247 -0.058434 -0.18927 -0.08984 0.12028 -0.012747 -0.22335 0.077166 -0.11316 0.2401 -0.3393 -0.14245 -0.015467 -0.16298 -0.2306 -0.081398 -0.041257 0.14148 0.48075 0.14552 -0.099179 -0.29852 0.24097 -0.28097 -0.15448 -0.20097 -0.080273 -0.008766 -0.2374 -0.35765 0.18678 0.21884 -0.13568 0.16439 0.12858 0.13185 0.081773 -0.28406 -0.0064781 0.19137 0.34857 -0.035255 -0.17552 -0.198 0.24456 0.15476 0.13323 -0.047441 -0.22595 -0.18218 -0.10884 0.15384 -0.0006741 0.072545 0.18041 -0.093427 -0.16187 -0.28411 0.10863 0.17942 -0.13751 -0.4478 -0.18319 -0.0017445 -0.31223 -0.21607 -0.14674 0.44747 0.027372 0.10123 0.16623 -0.049736 0.048537 -0.28569 0.13845 -0.51983 0.15117 
offic 0.27692 0.15173 -0.28366 -0.15293 0.25616 0.061726 -0.087282 0.094648 0.49517 0.26364 0.063002 -0.0043566 -0.015025 -0.444 0.14019 -0.51428 0.49293 -0.31955 0.1449 -0.28912 0.11897 -0.15957 0.16058 0.075847 0.01483 0.43987 -0.47979 0.12329 0.03813 -0.5846 0.26684 0.23563 0.81583 -0.00046091 0.45406 0.04095 0.26081 0.28466 -0.22157 -0.41939 -0.36586 0.07227 -0.45077 -0.46308 -0.13842 0.030374 0.1093 -0.25807 -0.057695 0.16732 0.023012 -0.16915 0.0068345 -0.12949 -0.25485 0.10342 0.1785 0.21768 -0.55422 -0.0070647 0.24892 0.48931 -0.073908 -0.047549 0.47768 0.2963 0.10983 0.16266 0.24619 -0.13881 0.0045082 0.15466 0.22633 -0.13272 -0.27005 0.14158 -0.64407 -0.44357 0.13874 0.11372 0.20285 -0.20305 0.010969 0.038537 0.43109 0.20007 0.033541 -0.13055 0.13815 0.23774 0.085469 0.0084313 -0.056401 0.032438 -0.18787 -0.30187 0.0027707 -0.51022 0.032771 -0.24391 
microsoft 0.2786 0.14933 -0.29205 -0.14704 0.26123 0.067427 -0.086521 0.10011 0.496 0.25103 0.056385 -0.010327 -0.033462 -0.4427 0.1321 -0.51616 0.49412 -0.30159 0.14347 -0.30558 0.1224 -0.15069 0.16296 0.060496 0.018955 0.43562 -0.47687 0.12902 0.041565 -0.59319 0.26973 0.23171 0.82755 -0.006964 0.45833 0.04325 0.27381 0.2888 -0.21356 -0.41495 -0.37415 0.064962 -0.45132 -0.46393 -0.15096 0.04776 0.10455 -0.25392 -0.072661 0.16087 0.010652 -0.16712 0.017736 -0.12292 -0.26801 0.11293 0.16761 0.21941 -0.57104 -0.014501 0.25367 0.48964 -0.090534 -0.036621 0.47646 0.2957 0.11379 0.15271 0.23909 -0.12984 0.016797 0.16088 0.23299 -0.13349 -0.26639 0.13612 -0.6431 -0.44452 0.12465 0.11028 0.19493 -0.19122 0.015915 0.035404 0.42915 0.19065 0.049958 -0.13784 0.14359 0.22384 0.080252 0.021841 -0.073368 0.032982 -0.19172 -0.29808 0.0092808 -0.5129 0.029947 -0.24142 
theater 0.18633 0.21275 0.033658 -0.22128 0.20007 0.24714 -0.11784 0.032128 0.069315 -0.39704 -0.056203 -0.19651 0.0095094 -0.54613 0.1921 -0.02836 0.10226 -0.30787 -0.26198 -0.28799 -0.15852 0.24022 -0.16997 0.30178 0.099193 0.026624 0.13396 -0.071764 -0.71507 -0.069497 -0.14425 0.072206 -0.31512 0.19669 -0.19615 -0.26592 -0.059459 0.15113 0.10744 0.068743 -0.37952 -0.10586 -0.30431 -0.029011 -0.070211 -0.016293 0.41669 -0.18342 0.15256 0.20502 -0.029394 -0.50529 -0.034121 -0.15171 -0.3493 0.0084683 -0.0073181 0.21329 -0.29514 0.052105 0.45924 0.38101 -0.1088 -0.15326 -0.0059017 0.082518 0.39774 0.15895 0.15714 -0.40544 0.12944 0.28899 0.19517 -0.334 -0.030411 0.10661 -0.56234 -0.32995 -0.012075 0.098851 -0.044609 -0.25005 -0.3155 0.31603 0.16789 0.27284 0.10149 0.021597 0.14195 -0.077871 -0.051406 -0.15957 0.074667 0.035278 0.36794 0.016635 0.039089 -0.23061 0.4308 -0.080301 
home 0.18607 0.21289 0.041483 -0.22625 0.19711 0.23499 -0.13237 0.045893 0.060153 -0.40838 -0.067241 -0.19147 0.024489 -0.5539 0.19465 -0.030347 0.1159 -0.32195 -0.25825 -0.28844 -0.16591 0.24121 -0.16805 0.29472 0.081259 0.027026 0.13605 -0.071317 -0.70966 -0.057891 -0.13822 0.078189 -0.32098 0.20888 -0.19742 -0.26746 -0.047389 0.14775 0.11111 0.067174 -0.3644 -0.10788 -0.29069 -0.024212 -0.07387 -0.011702 0.41888 -0.18163 0.14671 0.20604 -0.021638 -0.50537 -0.02356 -0.1554 -0.36255 0.0076793 -0.0080308 0.2123 -0.28215 0.064929 0.46302 0.38423 -0.10296 -0.14875 -0.0033346 0.070469 0.38675 0.17217 0.14882 -0.41012 0.12564 0.30353 0.19595 -0.33235 -0.022326 0.099101 -0.55048 -0.32054 -0.012445 0.095553 -0.03772 -0.2435 -0.30059 0.31448 0.16369 0.2649 0.092386 0.017861 0.1416 -0.075296 -0.046717 -0.16652 0.066169 0.025962 0.37545 0.020643 0.043506 -0.23167 0.44566 -0.068694 
onlinemidnightsal 0.17596 0.21293 0.036264 -0.23129 0.19194 0.24819 -0.13675 0.031104 0.066371 -0.39358 -0.059581 -0.19573 0.013661 -0.55075 0.17894 -0.026604 0.11358 -0.31233 -0.26202 -0.29999 -0.17519 0.2374 -0.16484 0.29102 0.092088 0.013081 0.1264 -0.070921 -0.71581 -0.062249 -0.13178 0.062288 -0.3183 0.20678 -0.1954 -0.26554 -0.048905 0.15389 0.099087 0.076382 -0.369 -0.10536 -0.29172 -0.030509 -0.061705 -0.01791 0.40868 -0.18575 0.13912 0.21759 -0.01772 -0.50275 -0.031464 -0.14728 -0.35888 0.020089 -0.0085587 0.20596 -0.27692 0.067037 0.46294 0.37771 -0.099351 -0.16319 -0.013594 0.085985 0.39159 0.16346 0.15683 -0.40467 0.12071 0.30303 0.18921 -0.33659 -0.023545 0.093173 -0.56813 -0.33093 0.00026119 0.11069 -0.042315 -0.24661 -0.30692 0.30618 0.15681 0.26443 0.10211 0.021384 0.14699 -0.078932 -0.037123 -0.17021 0.070177 0.019728 0.37162 0.0038073 0.050911 -0.21841 0.44025 -0.075148 
record -0.25287 -0.059006 -0.41633 -0.0062909 0.049654 0.3516 -0.40841 -0.069757 -0.50568 -0.40252 -0.25757 -0.080954 0.1938 -0.6003 0.058676 -0.085586 -0.205 -0.1084 -0.068992 0.19762 -0.76463 -0.16275 -0.24571 0.31772 0.2679 0.12797 -0.1246 0.15478 -0.29332 -0.31139 0.12059 0.029608 -0.04716 0.064491 -0.14337 0.20781 0.33625 0.21243 0.12315 -0.54269 -0.29924 -0.63857 -0.52995 -0.18007 -0.20049 -0.13604 0.2373 0.006038 -0.054977 0.61667 -0.26275 -0.41766 0.42483 -0.30858 0.11689 0.056225 -0.41838 0.10912 -0.36348 0.16644 -0.23084 0.089226 0.25284 -0.29867 0.058556 0.081319 0.18647 0.070876 0.04527 -0.13326 0.28563 0.16192 0.26446 0.038112 0.080763 -0.22799 -0.56411 -0.51148 0.19951 0.38069 0.34172 0.14811 0.31548 0.021019 0.050742 0.47032 0.54827 -0.18836 -0.06642 0.367 -0.38807 -0.18565 -0.062247 -0.057297 0.20726 -0.061436 -0.21949 -0.35855 0.44372 -0.041115 
voic -0.25108 -0.054583 -0.41573 -0.0049726 0.051112 0.35509 -0.40587 -0.059542 -0.51206 -0.40265 -0.25296 -0.071559 0.1881 -0.60062 0.055806 -0.095131 -0.20533 -0.10616 -0.067078 0.19658 -0.765 -0.16876 -0.23646 0.31801 0.27058 0.13687 -0.13953 0.15003 -0.28094 -0.30429 0.12614 0.026622 -0.05613 0.066882 -0.15349 0.2084 0.33729 0.20043 0.13375 -0.54621 -0.30595 -0.63407 -0.53581 -0.18446 -0.18534 -0.13839 0.22923 -0.0041057 -0.064361 0.61973 -0.26832 -0.40975 0.42018 -0.30808 0.11262 0.068426 -0.41325 0.093903 -0.35173 0.16541 -0.23559 0.09669 0.2536 -0.29601 0.06091 0.064389 0.18029 0.06857 0.05984 -0.1268 0.2892 0.14701 0.25181 0.028196 0.078283 -0.23446 -0.55969 -0.50898 0.19645 0.36682 0.33801 0.16309 0.31644 0.02319 0.055215 0.47503 0.54595 -0.17615 -0.061543 0.36495 -0.37214 -0.19923 -0.072784 -0.059144 0.212 -0.062676 -0.219 -0.36127 0.45387 -0.054295 
throne -0.033443 0.04275 -0.24322 0.22015 0.17925 -0.073976 0.26208 0.033608 -0.084875 0.036238 0.10638 -0.3276 -0.15862 0.35445 -0.16549 -0.17474 0.054448 -0.24055 0.026491 -0.4048 -0.36291 -0.018397 0.074992 -0.20326 -0.18719 0.26184 -0.13088 0.46746 0.39545 0.30484 -0.26056 -0.24066 -0.01484 0.23399 0.3709 -0.0094736 -0.18643 0.0069342 -0.14299 -0.041627 0.032345 0.041648 0.07024 -0.069918 0.1398 -0.32058 0.11008 -0.31732 -0.13205 0.086131 0.55504 -0.1939 -0.06995 -0.35531 0.25356 -0.10084 -0.017923 -0.13539 -0.25521 0.17069 -0.099653 0.0090059 -0.19974 -0.068776 0.23625 -0.2955 0.53749 0.066704 0.15261 -0.052584 -0.38814 -0.064039 0.086935 0.28481 0.10375 -0.043288 -0.38504 -0.20937 -0.054415 0.22742 0.084152 -0.19561 -0.29066 0.095004 0.22461 0.090914 -0.12156 -0.28505 -0.22103 0.34296 -0.11732 -0.045308 -0.13938 0.22466 -0.11037 -0.20257 0.02221 0.081494 -0.11587 0.11714 
the -0.048614 0.044206 -0.2509 0.21264 0.19384 -0.066709 0.26696 0.030884 -0.087314 0.050431 0.10092 -0.32854 -0.16436 0.34942 -0.16971 -0.18031 0.058307 -0.24236 0.0086654 -0.41135 -0.35285 -0.024854 0.074943 -0.18643 -0.18442 0.25777 -0.13928 0.47938 0.39864 0.30611 -0.25392 -0.24098 -0.0091866 0.22715 0.37296 -0.0012717 -0.19868 -0.00679 -0.1534 -0.038153 0.044627 0.043529 0.068661 -0.066163 0.13406 -0.31926 0.10762 -0.32362 -0.13007 0.080543 0.56271 -0.20411 -0.065406 -0.3607 0.2538 -0.091929 -0.024526 -0.13849 -0.25991 0.17521 -0.092906 0.013424 -0.20233 -0.060331 0.24025 -0.29062 0.54466 0.065372 0.15755 -0.050958 -0.38907 -0.065056 0.097532 0.27063 0.11408 -0.030054 -0.37513 -0.20746 -0.058444 0.23075 0.075649 -0.19473 -0.28192 0.10306 0.22472 0.10517 -0.12023 -0.27175 -0.22832 0.33833 -0.11861 -0.039651 -0.13871 0.23786 -0.11165 -0.2215 0.025126 0.091368 -0.10132 0.10976 
stand 0.5967 -0.2313 0.069057 0.024262 -0.015502 -0.006323 -0.18563 0.085201 -0.54649 -0.42672 0.47373 -0.20333 -0.47144 -0.088126 0.45082 -0.11935 -0.069854 -0.27764 0.27449 0.62652 -0.2275 -0.85959 -0.20096 0.35046 -0.18759 -0.068213 -0.051455 0.3291 0.35979 0.052937 0.19486 0.16739 -0.087066 0.42286 0.39225 0.26567 0.001931 0.062893 -0.044451 0.32559 -0.42574 -0.58841 -0.3317 -0.34478 0.48816 0.13613 0.023631 0.42291 -0.11923 0.044796 -0.0025658 -0.44304 0.60328 -0.12645 -0.019517 0.021243 0.12603 0.15803 0.038283 0.48382 0.21969 -0.25213 -0.53609 -0.50368 -0.023648 0.19465 0.34364 -0.22919 -0.86095 0.0021765 -0.11315 0.39664 0.27892 0.27697 0.21676 0.14481 -0.84761 -0.42017 -0.29964 0.45522 -0.033272 -0.14652 0.23166 0.60411 0.31755 0.57434 -0.092842 -0.070977 0.32765 0.46237 -0.25023 -0.20594 -0.48593 -0.24293 -0.20599 0.22229 -0.13966 -0.59746 0.31359 -0.48464 
lil -0.02714 0.065454 -0.29055 0.24377 0.25691 -0.046075 0.31221 0.04301 -0.12395 0.0078418 0.13592 -0.41235 -0.22084 0.38536 -0.1832 -0.23004 0.06603 -0.32084 0.040267 -0.4503 -0.42675 -0.041347 0.082639 -0.22055 -0.25562 0.30753 -0.16805 0.56379 0.47038 0.33416 -0.29469 -0.29105 -0.0066776 0.29584 0.44073 -0.0058976 -0.22184 0.01085 -0.16311 -0.022861 0.0096363 0.031206 0.040033 -0.084415 0.20771 -0.36466 0.15011 -0.35153 -0.15154 0.1153 0.63292 -0.23841 -0.016008 -0.39493 0.27282 -0.10579 -0.040746 -0.14176 -0.27701 0.19442 -0.078314 -0.0073091 -0.24879 -0.086102 0.27174 -0.35899 0.63678 0.068623 0.14759 -0.077251 -0.4602 -0.053568 0.12218 0.3516 0.14641 -0.031032 -0.47886 -0.26864 -0.052369 0.2929 0.11204 -0.24677 -0.32789 0.14119 0.28788 0.14256 -0.14188 -0.33946 -0.26082 0.42799 -0.16437 -0.034502 -0.18192 0.27156 -0.13563 -0.2438 0.037052 0.083394 -0.10649 0.099726 
cabl -0.1686 -0.042706 0.16951 -0.16335 -0.31343 -0.21987 -0.30605 0.080834 0.078406 -0.17665 0.059633 -0.10702 -0.15856 -0.032613 -0.30015 0.28801 -0.15367 0.21299 0.10046 0.14559 0.25031 -0.15734 -0.033238 -0.0090028 -0.12123 -0.18198 0.14879 0.2775 0.066953 -0.20841 0.10011 -0.037331 0.29076 0.25043 0.068947 -0.27268 -0.23969 -0.45757 0.10804 0.10185 0.47219 0.33248 0.18202 -0.0076735 -0.0023819 0.27021 -0.081115 0.11329 -0.045632 -0.16527 0.08005 -0.17527 0.079031 0.17726 -0.018637 -0.060424 -0.22289 -0.1593 0.35335 0.13685 -0.26201 -0.1909 -0.12292 0.083167 -0.26078 -0.21574 0.15397 -0.079415 -0.068381 0.21521 0.21571 -0.045615 -0.099104 0.23314 0.015038 -0.18075 -0.011881 -0.22044 -0.12182 0.016483 0.1047 -0.031318 0.22286 0.37357 -0.30337 -0.10858 -0.12801 0.17845 0.11658 0.024419 -0.12603 -0.092291 -0.21619 0.042373 -0.22961 -0.15758 0.086855 -0.073954 -0.041842 0.16623 
xoom -0.47258 0.030905 -0.048932 -0.23092 0.14867 0.40643 0.36449 0.21934 0.90282 0.91307 -0.50389 0.37887 0.51719 0.31018 -0.65662 0.26153 0.18593 0.1193 -0.1326 0.10938 0.16241 0.63717 0.64511 -0.027236 0.56233 0.15711 -0.83354 -0.099087 0.45942 0.73288 -0.40355 -0.6615 -0.41873 -0.34724 0.31097 -0.052432 0.14245 -0.18779 -0.21731 -0.34408 -0.2826 -0.042394 0.44249 0.22675 -0.00071601 -0.33612 -0.12351 -0.32299 -0.088603 -0.17985 0.29977 0.31956 -0.54696 0.6996 -0.42783 -0.092853 0.31511 -0.088551 0.096082 -0.53371 -0.175 0.54713 0.34489 0.13718 -0.016979 -0.13867 -0.73032 -0.077167 0.55336 0.14963 -0.4721 -0.048285 0.062922 -0.41027 -0.7468 -0.20723 0.9924 0.13127 0.10882 -0.30442 0.32815 0.093609 -0.12534 -0.24407 -0.081193 -0.38625 0.15379 0.50189 -0.28867 -0.33841 -0.45778 0.19943 0.60472 -0.12966 0.17451 -0.083116 0.15349 -0.26896 -0.1117 0.14383 
war -0.4379 0.14354 0.054624 0.055298 0.07201 -0.22958 0.18053 0.13917 0.1693 0.089411 0.02294 -0.050476 0.25595 0.31569 -0.20336 -0.12066 0.069302 0.19704 0.11136 -0.54471 0.20345 0.084575 0.023623 0.039078 0.027179 -0.19804 -0.1235 0.097434 -0.0004987 -0.14139 0.036798 -0.15281 0.18591 -0.35497 -0.16774 -0.010725 -0.14961 -0.26185 -0.087846 -0.076397 0.17983 0.51137 0.21979 -0.055722 -0.31378 0.19885 -0.28598 -0.1928 -0.20972 -0.09905 -0.01656 -0.16545 -0.43338 0.2441 0.20061 -0.12893 0.17494 0.11558 0.097437 0.034066 -0.32022 0.045359 0.23569 0.36229 -0.043486 -0.19078 -0.28375 0.22063 0.23101 0.1466 -0.093399 -0.22663 -0.19318 -0.15625 0.088154 -0.020303 0.21225 0.18067 -0.09284 -0.21303 -0.28095 0.15579 0.17684 -0.19629 -0.47298 -0.22841 0.016557 -0.2407 -0.20702 -0.17905 0.42497 0.051683 0.19641 0.13904 -0.043491 -0.011811 -0.23639 0.18046 -0.52445 0.17944 
star -0.43921 0.1545 0.050621 0.068916 0.062415 -0.22902 0.18919 0.148 0.18621 0.093246 0.028378 -0.044412 0.25337 0.29957 -0.21077 -0.12111 0.067077 0.19318 0.10009 -0.54914 0.2045 0.090067 0.019566 0.042343 0.023643 -0.18924 -0.12027 0.10304 0.0065696 -0.1582 0.028026 -0.15445 0.17844 -0.36648 -0.1769 -0.026599 -0.15598 -0.26406 -0.099192 -0.072344 0.18515 0.49898 0.22916 -0.055603 -0.32571 0.1933 -0.28898 -0.1913 -0.19649 -0.10291 -0.0012739 -0.16492 -0.42984 0.23097 0.19653 -0.12895 0.18916 0.11862 0.10198 0.046222 -0.31163 0.044965 0.23115 0.37433 -0.046262 -0.1899 -0.27926 0.22158 0.23619 0.16084 -0.10262 -0.23661 -0.1841 -0.15775 0.096636 -0.011865 0.19553 0.17092 -0.098966 -0.21333 -0.27135 0.17126 0.18413 -0.20057 -0.45883 -0.23256 0.015009 -0.24666 -0.22135 -0.18408 0.42947 0.036491 0.1891 0.13175 -0.028249 -0.0045768 -0.2292 0.172 -0.5261 0.17548 
speaker 0.23435 0.030334 0.31968 0.17873 -0.45563 0.094675 -0.52014 -0.058419 -0.30727 -0.52113 0.13154 -0.1066 -0.36114 -0.30708 0.31006 -0.13498 -0.078901 -0.38717 0.3154 -0.037347 0.013751 -0.076908 -0.28977 0.36343 -0.67668 0.34056 0.42544 -0.12587 -0.38351 -0.81303 0.25775 0.41021 0.6014 0.48213 0.46798 -0.15269 -0.21534 0.31828 -0.18509 0.53374 -0.31547 -0.37026 -0.241 -0.31329 -0.0098217 -0.10573 0.21345 0.10098 0.37077 0.080396 0.24454 -0.63116 0.34899 -0.80192 0.044902 0.02502 -0.13944 -0.041458 0.16159 0.21606 -0.025911 -0.25086 -0.39721 -0.094456 0.14937 0.0093661 0.85347 0.056635 -0.53726 -0.58009 0.85647 0.074528 0.10346 0.22317 -0.023987 0.22291 -0.64539 -0.080276 0.18045 0.13365 0.23601 -0.43943 -0.4067 0.44465 0.37213 0.52846 -0.11624 -0.16285 -0.049834 -0.11146 -0.25255 -0.20224 -0.28295 0.57659 -0.096649 0.39972 -0.27363 -0.36332 0.024379 0.086748 
five -0.44308 0.15765 0.083057 0.092068 0.064008 -0.22452 0.18751 0.15439 0.16783 0.078381 0.038345 -0.057497 0.2525 0.33423 -0.20869 -0.13457 0.076424 0.17898 0.11984 -0.54696 0.19254 0.083764 0.040401 0.041644 0.02852 -0.18165 -0.1229 0.10581 0.019731 -0.15614 0.035493 -0.16089 0.19418 -0.37105 -0.15237 -0.016285 -0.14323 -0.26723 -0.11045 -0.085351 0.1899 0.50811 0.2209 -0.055022 -0.32832 0.18996 -0.31126 -0.20313 -0.22259 -0.11383 -0.0067332 -0.17765 -0.43812 0.25133 0.20599 -0.14733 0.17547 0.12195 0.11127 0.041563 -0.32341 0.035964 0.22905 0.37786 -0.031829 -0.20115 -0.26869 0.22364 0.22499 0.1688 -0.098805 -0.23791 -0.19503 -0.15247 0.098613 -0.012167 0.19441 0.16851 -0.096341 -0.18672 -0.2907 0.16496 0.18571 -0.19306 -0.4738 -0.22598 0.015197 -0.26387 -0.23608 -0.1649 0.42308 0.041429 0.18521 0.14799 -0.038215 0.0050879 -0.25219 0.16585 -0.55146 0.17931 
fast -0.44403 0.14756 0.068711 0.091093 0.05855 -0.21544 0.19668 0.15324 0.16631 0.096675 0.039419 -0.050404 0.25598 0.32949 -0.20236 -0.11529 0.080276 0.18774 0.10347 -0.53908 0.19809 0.084061 0.037974 0.05357 0.041285 -0.18042 -0.12573 0.10678 0.032632 -0.16332 0.036863 -0.17658 0.19825 -0.36286 -0.15726 -0.0088815 -0.14052 -0.25492 -0.09752 -0.072347 0.1787 0.50333 0.23099 -0.062557 -0.32956 0.18797 -0.31278 -0.21104 -0.21858 -0.10362 0.0048078 -0.17428 -0.43088 0.25878 0.20663 -0.1486 0.18369 0.1247 0.10186 0.042163 -0.33114 0.027669 0.21975 0.37821 -0.033485 -0.19012 -0.26473 0.22488 0.22393 0.15866 -0.099634 -0.22569 -0.18129 -0.1368 0.097914 -0.015103 0.18648 0.16564 -0.083515 -0.20514 -0.27985 0.16641 0.17884 -0.18218 -0.47478 -0.24041 0.016761 -0.26004 -0.23677 -0.17749 0.42104 0.031037 0.174 0.13397 -0.027357 0.0011788 -0.25077 0.17438 -0.53698 0.16613 
fire 0.10877 0.015239 -0.063689 0.10893 0.056702 -0.048867 0.27873 -0.3569 -0.020518 0.059369 -0.05506 -0.091128 0.14934 0.20922 -0.0064138 0.23167 -0.40171 -0.12764 -0.14869 -0.16939 0.036045 0.15487 -0.28283 0.0409 -0.15554 0.066575 0.17359 -0.064046 -0.31381 -0.071421 -0.1104 0.26587 0.072019 -0.18054 -0.18549 -0.2465 -0.29368 0.016407 0.053235 -0.11735 0.19371 0.13288 0.18822 0.1037 -0.30281 -0.15374 -0.020093 -0.20848 -0.0057205 -0.050518 -0.018506 -0.20748 -0.019673 -0.19053 0.28806 0.032312 -0.034925 0.075051 0.053127 -0.22204 -0.016689 -0.34242 0.10184 0.01825 0.11886 0.13478 0.032674 -0.019884 -0.064116 -0.19206 3.8215e-06 -0.30271 0.090525 0.071235 -0.14339 -0.14263 0.24442 0.16905 0.08063 -0.31212 -0.066096 -0.047449 -0.095587 -0.0056459 0.091044 0.033293 0.14252 -0.1377 -0.084857 -0.28793 0.13648 0.25354 0.16119 0.2102 0.081802 0.30895 -0.15961 0.16197 -0.16553 -0.01947 
samsung -0.20117 0.0082091 0.0036575 -0.048197 0.053978 0.053168 0.14164 0.088167 0.31267 0.31669 -0.17552 0.15573 0.18614 0.25655 -0.22361 0.046397 0.080588 0.08647 -0.026827 -0.0061788 0.042273 0.22014 0.25508 -0.033426 0.25397 0.034506 -0.26525 -0.016334 0.21388 0.28548 -0.13461 -0.20249 -0.12293 -0.16743 0.085816 0.018569 0.080578 -0.1272 -0.084157 -0.090993 -0.020992 0.016135 0.28334 0.095674 -0.0048004 -0.11482 -0.10063 -0.12193 -0.076988 -0.068696 0.088833 0.18105 -0.24184 0.31049 -0.11608 -0.03083 0.13197 -0.053928 0.029739 -0.18842 -0.10991 0.17589 0.12131 0.080061 -0.0071311 -0.08309 -0.26939 -0.02108 0.20785 0.11196 -0.20973 -0.082236 0.011246 -0.10052 -0.19714 -0.045057 0.34997 0.070273 -0.0023719 -0.099145 0.052845 0.093834 -0.019592 -0.13236 -0.046824 -0.1643 0.039225 0.18596 -0.12311 -0.1151 -0.11448 0.068064 0.21085 -0.03794 0.050487 -0.073564 0.03119 -0.0030796 -0.092492 0.051407 
flyer -0.3232 0.016392 0.056037 -0.063526 0.042377 0.13851 0.2294 0.16326 0.46754 0.49606 -0.29274 0.23711 0.29281 0.37387 -0.36736 0.10658 0.13657 0.10148 -0.016718 0.015416 0.068875 0.34763 0.42576 -0.020684 0.39875 0.095831 -0.49662 -0.0032512 0.39716 0.45072 -0.24227 -0.35862 -0.16555 -0.24914 0.23365 0.031552 0.1322 -0.18986 -0.17733 -0.15939 -0.081538 -0.031074 0.41882 0.15243 0.018955 -0.21009 -0.15546 -0.21544 -0.10377 -0.1252 0.20938 0.25172 -0.37483 0.50579 -0.21726 -0.050561 0.22848 -0.079075 0.064018 -0.3273 -0.16087 0.28178 0.17971 0.11329 0.0047405 -0.15188 -0.38515 -0.062139 0.30514 0.15014 -0.30863 -0.12134 0.059014 -0.1691 -0.34355 -0.095484 0.54663 0.094627 0.0048302 -0.13162 0.15735 0.098361 -0.083746 -0.12957 -0.071238 -0.22558 0.064884 0.32005 -0.20416 -0.20451 -0.25795 0.096689 0.31746 -0.030948 0.085944 -0.079558 0.0038134 -0.1283 -0.1322 0.074879 
htc -0.33895 0.015025 0.054367 -0.062919 0.046587 0.14109 0.23049 0.17517 0.45869 0.49444 -0.28678 0.24789 0.28998 0.37646 -0.38163 0.10421 0.14234 0.10227 -0.033242 0.014018 0.059715 0.3486 0.43468 -0.011035 0.38534 0.10505 -0.49456 -0.0064547 0.3902 0.43381 -0.23354 -0.3728 -0.15454 -0.24552 0.22695 0.031499 0.14935 -0.19324 -0.1812 -0.15229 -0.082554 -0.031481 0.40914 0.13848 0.022122 -0.22227 -0.14232 -0.2065 -0.096113 -0.13147 0.20633 0.24767 -0.36646 0.49721 -0.21488 -0.036541 0.23121 -0.090759 0.072659 -0.32822 -0.16426 0.27499 0.1703 0.11326 -8.6133e-05 -0.13824 -0.39503 -0.047059 0.30191 0.14837 -0.31712 -0.12872 0.0561 -0.15843 -0.33181 -0.094426 0.55417 0.099676 0.0056124 -0.13016 0.15638 0.083705 -0.083 -0.14597 -0.057458 -0.2305 0.073742 0.30437 -0.21035 -0.20625 -0.2582 0.093124 0.30994 -0.040942 0.090817 -0.080908 0.0038605 -0.1155 -0.13851 0.082779 
wayn -0.031142 0.074146 -0.29 0.24109 0.25247 -0.039844 0.32487 0.040853 -0.13424 0.0085758 0.14226 -0.41354 -0.22847 0.3829 -0.17711 -0.23217 0.066668 -0.32417 0.040367 -0.44208 -0.43562 -0.041546 0.068857 -0.21523 -0.25906 0.30454 -0.16522 0.55724 0.48193 0.34367 -0.29815 -0.2884 0.0019259 0.28168 0.43221 0.0097637 -0.21918 0.0057745 -0.1655 -0.034526 0.017765 0.013291 0.028154 -0.074032 0.21236 -0.37562 0.15341 -0.34708 -0.15535 0.11483 0.65065 -0.2418 -0.011753 -0.40403 0.28496 -0.10448 -0.0221 -0.15983 -0.28938 0.19449 -0.088673 -0.0049659 -0.24512 -0.079548 0.27605 -0.36494 0.62223 0.063903 0.14832 -0.068877 -0.45658 -0.056269 0.12026 0.34972 0.14288 -0.032935 -0.48464 -0.27145 -0.049213 0.27848 0.12561 -0.23132 -0.32903 0.14567 0.28529 0.14619 -0.14323 -0.34989 -0.26615 0.43051 -0.16124 -0.04465 -0.17651 0.27163 -0.12038 -0.24972 0.036536 0.076433 -0.10584 0.10419 
